0,1,2,3,4,5,6,7,8,9,10,11,12,13,14,15,16,17,18,19,20,21,22,23,24,25,26,27,28,29,30,31,32,33,34,35,36,37,38,39,40,41,42,43,44,45,46,47,48,49,50,51,52,53,54,55,56,57,58,59,60,61,62,63,0
-0.004856054944652761,0.05900559986398812,-0.06143921167818808,0.05292906269605625,-0.07001118678091459,0.006441867170431367,0.09519004366886243,0.05752925593877773,-0.012018105375803681,-0.05122637431806693,-0.007837449659197021,0.13493749513335457,0.19633775532862108,-0.07624699440147877,0.021377440415350894,0.028709176098581132,-0.0227573860013244,0.04414597464743886,-0.02906150239044866,0.11768112100089971,0.04152089750669491,0.06317752380022008,0.03425625263427799,-0.0032565671871006008,0.04238894893200207,0.030320731960776556,0.0620110594844464,-0.023533468338572817,-0.00882752795868658,0.04547625231404394,-0.014454996501654816,-0.0044299114889572,-0.0690137840751521,-0.09942933414360944,-0.018790095901158887,0.03183942488868903,-0.03760275900120632,0.03870566252886334,-0.0503963967198603,-0.054641846333688536,0.008614787000120073,-0.005577381734684175,-0.02739101170621351,-0.04662596204811444,0.12574488925470767,0.02424510710034467,-0.13910685574765694,-0.05725718331986511,0.028788280139650554,0.03071047614188626,0.12947381956167536,0.060445023123905026,-0.029327111662335578,0.0787435197953692,0.12771429604022808,0.07743216700803382,0.149184035622016,-0.038908365472098395,-0.037583794612730495,-0.1055891306591807,-0.0009193032842613191,0.01571578533373999,0.01191405990964614,-0.004905329566883096,0.4973146021705717
-0.0249267734890954,0.055411648256623605,-0.04674086121675487,-0.056773920029043926,-0.09741518525912446,-0.049609467588667286,-0.2690358844490833,0.0467483871902533,0.032276689665959035,-0.09268124225447394,0.06771318933386322,0.052725375521842394,0.19190323658541825,0.1506655880662964,0.04959384063020112,-0.006625954939593462,0.054757460769928885,-0.010160422754994196,-0.05557133336590112,-0.03505078304664023,-0.007769975213687663,-0.10970240403012911,-0.05036899088760789,-0.03431845484323606,-0.009394686179730284,0.161932173885162,-0.15284379980569313,-0.14456120773827513,0.013568296696550557,-0.06018822113220686,-0.016660215773370537,0.007824034785731623,-0.13885197053845,0.08870540749703734,0.037578558390933756,0.2803498080212029,-0.034584284202243305,-0.09823381487446786,-0.025142158844256125,-0.15851110908060814,0.03607452571109341,0.08272037874614839,-0.051229426973547654,0.0591620928870513,0.09796716653078556,0.045935071310788056,0.1874910214397974,0.017803214886954757,-0.007251769494517275,-0.09770024559889227,-0.17051660069198618,-0.05483357568508889,-0.002593037296617612,0.17668785638582526,-0.08781096463423384,-0.023049197095865524,-0.00507413693638719,0.046635720848546516,-0.039866285852803274,-0.06937853152184369,0.061804863541227384,0.006871727063399968,0.009219697309149698,0.012617350952582096,-0.9331227541901342
0.048468487063455724,0.06091489612348813,-0.03944394434470439,0.016445255365331354,0.10291638025300627,0.04846876721828282,0.30309484575720663,-0.06069370303433488,0.06645252539357493,0.011257274038833654,0.04933741144643694,0.17374505748310545,-0.14582863293002393,0.1068319472042583,-0.05138930532517168,0.03749580171698383,0.023093505928238316,0.0887466948045602,0.01701642853106328,0.2021442317592455,-0.010654881107507258,0.050581028937373866,0.011328229324309276,0.013094222421444798,-0.07656066109109998,-0.2692695033938807,0.2597922034183812,0.1809048409524526,0.03199884000495738,0.020178003176600706,0.06223440067296967,-0.00847623209693556,-0.1204265475429764,-0.15948959492934253,0.0013487282683989012,-0.2776833206411331,-0.023175642719975235,0.09128818880137403,0.04245038035072616,0.17544209001311517,-0.08165276660124568,-0.018744807353444613,0.069654169813766,-0.019713377537775398,-0.06779613603110635,0.03638426187248754,-0.14408727838167182,-0.022548131986201717,-0.14173944491307933,0.06295216016477599,0.22095868739928848,-0.0533518297002528,0.0053151040938471256,-0.0685616565161095,0.11254093830559214,-0.06340075729324908,0.009765817222998987,-0.11306833407604142,-0.04250552783303101,-0.168681413530533,0.03578747765344786,-0.04418904851356088,0.03766945738368443,-0.02504690406079582,-1.2641660200737068
0.0019335492134407856,0.003589848454303643,0.0037546938772525656,-0.05631509168138743,-0.06185769508143804,-0.059182448223080775,0.04801708080838066,-0.020621736150837275,-0.056252319295095346,0.006490129716684237,0.060892380985080374,-0.006243304858286836,-0.026548377336479842,0.0174476012275174,-0.01181649886484093,0.02905723066565538,-0.03854445714938863,-0.007445575875827268,-0.045185165753753226,-0.011341659237116233,0.056898707113082356,0.018359492638367836,-0.0356490703371487,-0.05294689540260866,0.05866622610134532,0.035141632660943736,-0.003559824440696649,-0.0356242284996655,-0.057418673710246726,0.03821760839672304,0.020774201790084698,-0.04970933957286762,-0.009855829414737546,-0.05350251599548134,0.011483010491568635,0.007184609559355973,-0.004432541104532173,0.042458335574994455,0.04162450011386544,-0.023865138631310942,0.04037131193317885,-0.05816077209804736,-0.02712943482364101,0.011802805759909399,-0.033323194600670264,-0.007431831370306452,-0.02782340108903371,0.05195679265997746,0.06025319669401058,-0.04181378993024516,0.03864708605355728,0.0069728160207167406,0.062029918235592646,-0.05303851850764291,-0.01789850245997028,-0.05489875971197632,0.02592865015829278,0.016518067445162196,0.0037475114406122084,0.044388795938223605,0.04526410308540356,0.01950028500883924,-0.017287987235148974,0.012967192915070633,-2.1934771039566674
0.031220528432135408,0.00755513859199286,-0.05380093828776599,0.016508621796060552,-0.03541788394075685,0.05532651931812059,0.029951976155468327,0.006316292798719836,0.23487895763100416,0.12059762411467537,0.12962757518011644,-0.04308634297022444,-0.2264926664469584,-0.0892153567477752,0.1937285309777126,0.048993694696239834,-0.08482193098456471,-0.10183687888447195,-0.005996847985550528,0.0765242139185319,-0.04607522925002648,0.022866625045892354,-0.022891641022787138,0.020412711688166316,-0.10372634587825894,-0.2407013951588672,0.09755029557505186,0.08537945460719418,-0.03214752587216823,-0.016588066284952588,0.016204996332644293,-0.026372074101333628,-0.029773400936382134,0.14840637552173133,-0.03394281485935916,-0.08619654259584697,-0.046624266135915936,0.1296093246725737,-0.0495126479350487,0.1857231763062662,-0.15025518938102989,0.14041841109042108,0.08507047684205735,0.07575905862788214,-0.24804510945567537,0.013289825790975086,0.06555013919553851,0.055493435176067724,0.09910554597177623,-0.01269564577411107,0.05043150225027117,-0.052497335648948734,0.057693181324014506,-0.035772290460764605,-0.054675132620501214,-0.012822031934247765,-0.27687182725474513,-0.05095372106667667,0.04944147466109776,-0.02384316936157378,0.018429969601437654,-0.004607154627490177,0.19059564175011307,0.019422995463435885,-0.5315252155740056
0.030151831940622056,0.04742979452444632,-0.05896287667755998,0.019935283121697955,-0.007218779291867469,0.031408636822115296,-0.01294028373327935,0.058175535702480005,0.019989702414755617,0.038004282408382994,-0.01464957457999401,-0.037603359644204,0.009775842583870084,0.05412689003159207,0.026946856215453174,-0.01388435265044946,0.01537546577503919,-0.03502413253660895,-0.025372635121596668,-0.013697189892558637,0.05056863730005122,-0.06026843338015907,-0.020613375544652868,0.024008118536214068,-0.002703032104689765,-0.03201999539899243,0.01243810460186505,0.034233322425665874,-0.04453606911024807,0.061931635733902646,-0.026375294951786532,0.04818687881557575,0.038899407760346255,-0.0365523903114478,0.030981307478224834,-0.03264888235843162,-0.023832595515955943,-0.026752311031294884,-0.014271493472595057,0.057973195517736054,-0.018331192461917403,0.04169550611151912,0.04406089925333438,-0.0315279279965132,0.00403175073493621,-0.052199224546486234,0.0001780791762840822,-0.016063405572251915,-0.02881778045182358,0.026596486848202636,0.02608708345703223,-0.028738014029225073,0.0016858816937869864,0.018726531643601302,0.015517072036713458,-0.025754400750115758,0.060380435997997306,-0.04442803090419814,0.03775097374618987,-0.034695202743431366,0.029839894192440708,-0.02313152196121493,0.03745414549621873,-0.010198161478903872,-2.3401715637966585
0.0236928114592742,-0.042341978016956314,0.01805276687703711,0.05661277908296193,0.022326079084492044,-0.02354452317352923,0.21342810977033397,0.012448822272839805,-0.27258937086726287,0.1700367417732008,0.03920450485741684,0.14934154188897975,0.029504661577899587,0.009055312487676485,-0.3605630795406468,-0.006877036183894333,-0.021173209695631166,0.04208324432852052,-0.02169414179829568,0.028841521184654627,0.013471926141708224,-0.004852348093393523,-0.005370879560117596,0.03271927468457436,0.030697688842652067,0.17551049143485728,-0.05670338063443398,0.02550463479729292,0.018068783001120005,0.02020418080140321,0.0073042846076042485,-0.04154687188685879,-0.0016264788631259164,-0.32171217537384644,-0.017035718216706505,-0.062442075754935544,0.017770544171979135,0.04574485679561274,0.022877439250441108,0.020699120933989894,0.0018909884752700058,-0.03484889075321116,-0.0557560984955423,0.03131541569588087,0.07314478774693549,-0.02754419236551171,-0.031314256477470125,-0.06033599865864078,-0.18821565749174476,0.041658515160892945,0.2093062433264432,0.041256121245639564,-0.05482187539356921,0.09992743229642374,0.184343156494298,0.0508530648541829,0.08670520614977627,0.1436552836299553,-0.03054967291186067,0.06898881664821532,0.0536321534190673,-0.0016602062616386053,-0.1630950390814757,0.056372897392047844,0.9023135792732015
0.020395693494497977,0.05209044107332171,0.02648818153727886,0.01057462934444206,0.032933428705504975,-0.014754848449007027,0.04348132297623787,0.03190156620896534,-0.009928474769123757,0.05016985555857527,0.020195013962427524,-0.0008725863265354183,0.050511171779834,-0.0333406903195449,0.04942004504909478,0.056501113745804424,0.029383868665450813,0.04193872081346732,-0.04620603069245384,0.02978604804897081,0.04823132050434775,0.022316639948124245,-0.03545172931605439,-0.05618261802719904,0.01543445372981167,0.053430570400140945,0.012750167332051365,0.034278014981193705,0.029175971370830764,0.00544855178797507,-0.03993462215497204,0.051312191364200024,-0.012628099283568645,-0.05808055982935166,0.03509748437268216,-0.06126680260406739,0.054036200302598814,-0.05021268484342899,0.04616459007887226,-0.029306098578750217,-0.008643524887729445,-0.017810465322951455,-0.011927210396674479,0.04963724634480704,-0.03181226617476807,0.054410514770096646,-0.037167426021835204,0.00121216185178738,-0.03746160679302367,0.011577370763823092,0.06209696413029496,-0.033948756572164535,-0.00416003298798126,-0.059443152551700754,0.05712450241686787,-0.01377044028522681,0.01764823876916513,-0.046629930006545056,0.01523146077351109,-0.004655617844567597,-0.022910628049688103,0.04944890022621498,-0.041240637147281684,-0.01272587020152946,-0.6604149337463991
0.011491045563910368,0.030101492403755245,0.044501118862248626,0.0567869161381155,0.009392833620741612,0.028914647764920517,0.027150510406992727,-0.017068015125873845,-0.0373463335034737,0.04946172016700817,0.05626873484843348,0.051760874664940074,-0.00976085373973993,-0.022175931552717708,0.052570900582938646,0.025602964305037473,-0.010291122933771171,0.040853164402624924,-0.02034813222741773,-0.0074104917253357975,0.04910703878539849,-0.027906266684190866,0.04880744829668779,-0.0359489929447048,-0.033373602259271794,-0.02513580301897985,0.04352456120046051,-0.008111067508405243,-0.032499589708442383,-0.009575380305056544,-0.058357479876423105,-0.0043362509637882435,-0.0512235769617568,-0.03466989283751975,0.008513456099194601,0.04418191142390673,0.0241365994412142,-0.018346042431047493,-0.05523483505557919,0.04436755005216614,-0.051176034866646215,-0.01656437533509751,0.05835456868548094,-0.02627093848539375,0.05681483975453778,0.007961681634181279,0.052238206927956325,-0.046830092391401165,0.0035987828859793377,-0.04964186251177937,0.047191246323765715,0.06206867560261804,-0.03010699962890029,0.05926499745155271,-0.0023583628691032747,0.04388996060229135,-0.002277027392518867,0.006997834199984208,0.004097119648128825,-0.01255450905076599,-0.027379067013677094,-0.030116531400896093,0.02934131916232916,0.051600690069339525,0.15602380029419344
-0.0025455527929708296,-0.03445319117152562,0.0625314654886214,0.026918399537503496,0.08352130872039669,0.05526896093654611,0.07096335642852253,0.014887994758579038,-0.08146066452273286,0.13261275145641607,0.14311973396722152,-0.07620675958186804,-0.12325313730989859,-0.029538763529767885,0.19588137537161332,0.04765880645920545,0.33487179422199886,0.049393788261061444,-0.044230838238844154,-0.004901106581463536,0.02778684375037642,-0.14362814909687485,-0.035006045847243324,0.04286790765883193,0.013778127585936955,-0.1879254651141439,-0.08966159394481603,0.11495555337130622,-0.030460637510065884,0.059554067900094446,-0.04029688652096182,-0.05442660826959845,-0.08122381171025395,0.2187915839327515,-0.06123426364325199,0.021657664227697465,-0.05832687120076959,-0.04872333430825395,-0.01064096832423854,0.11101736923058149,-0.06916891794663488,-0.0854188585904049,0.0014114379721875269,0.06658507402012366,-0.11769635278576772,-0.022027985064280487,0.2627323829461943,-0.038477079574469567,-0.2071533290966667,0.14733501728576953,0.06899660150340581,-0.031122766544296538,0.0336928877930837,0.09515580919032593,-0.1462447836586049,-0.0186059498622757,0.030651628935463453,-0.08934863538586475,0.058773298093649104,-0.19645966225800351,-0.004234589027328151,-0.004420616677650777,-0.09530607412961516,-0.0022735949455053445,-0.00530057247516023
-0.0311349013700196,-0.06046837890841593,-0.01141935067779369,0.016826642029943162,-0.0028648275142208034,-0.0325756486691062,0.03132590588563077,-0.03412301670251777,0.06630988360487093,0.05488841703301705,-0.03520108549078814,0.07495156696240843,0.09036699831540411,0.12967170848216839,-0.14485512156187205,-0.03397449758965039,-0.12568089281315156,-0.10320601137203325,-0.04131187549341876,-0.027267770442721755,-0.03669405784352926,0.019746166094820473,-0.010256045140655999,0.048479797095160704,0.0896012645868939,0.08753600810134325,0.003095016823461178,-0.032376956155674146,-0.030486366284081388,0.003937187005161755,-0.024780299734842432,0.0643147481440846,-0.08026171255202065,-0.0740496431286662,-0.029418120305321746,-0.00018142092144311247,-0.007859344422106642,-0.020610218484457835,0.016152172444715344,-0.16801650973203452,0.06088041909103841,-0.03290344190456564,0.008665007095936664,0.07073620886465923,0.1116593684923335,-0.006957858065631223,0.06392767054719531,0.04265289636670394,0.11368260142270262,0.0023077571555579395,-0.038300088646884,0.048121392997127574,-0.025643122206666633,-0.07628991260327153,0.1587432785029354,0.04746020249716967,-0.05128843780795208,0.0796152607272567,0.043824215353348836,0.25796710281701757,-0.053313690767803235,0.025427154992806757,-0.00876421123225847,0.03167699525365936,-1.1585763121829822
0.006343511675335035,-0.017404112514316616,0.05387421310903807,0.03202630647733762,0.06114966369940622,0.016735006424405882,0.03325422033771666,-0.036309276103951925,0.009626489851962005,-0.061310912200609954,0.07915457185539494,-0.043263722542028975,0.05927982225415397,0.04824639601976206,-0.0996429218898714,-0.02031060451861602,0.05636990047221692,-0.03632240606093296,-0.03007753612991495,-0.009600360426917587,0.0094606659133578,-0.03180716873588436,0.00874987492343297,-0.010747250599976874,0.08239248076010114,0.015832034571148738,-0.0677596007591986,-0.01794427426814832,-0.02652827382970119,-0.01248582250184288,-0.026136610833903885,-0.03325674655050117,-0.04941680979711454,0.06193680719013403,-0.004127931775152238,-0.04071956823725378,-0.05626798906116253,-0.02174997100416218,0.02280266409905596,-0.012454772749102058,0.014892890717071056,0.04537703751110428,0.015739914146422875,-0.002797722357232458,-0.01603795420086283,0.017810598752617104,0.10324969160695222,0.054887612881027475,0.09219182457869184,0.03011259750953283,0.051266870508600404,0.03107670566833374,0.0011936668369949277,0.091329057692467,0.08947515000563463,-0.010401378258967656,-0.043940839110137034,0.14094925730774222,-0.024101342659345854,-0.023656311669603743,-0.012096302688760094,-0.014838167361365024,-0.10907660172673209,-0.033683523765365236,-0.0025711111190014494
0.04068726012463407,-0.035786769644271355,-0.030357783035665643,-0.05224451020722315,0.17915366016092282,0.02508042748214863,-0.19326459321140774,-0.026519807705867936,-0.11229777484757472,0.058863813997201864,-0.11874491246690148,-0.34533361518385786,0.15533979305137824,0.2568260583077952,0.010512951501375413,0.026595849672255797,0.08696264370116479,0.10812829527391389,-0.01766401432957886,-0.1523129411250987,-0.020321050875018606,-0.05784825003142014,-0.017111976614879114,-0.038313781645102074,0.06355649284703717,-0.08428741005334205,-0.010963689434834454,-0.19373317045794994,0.04894062863323643,0.01517829196203238,-0.059642688871379496,0.02475707764310949,0.21813386101510315,-0.07452023071285596,0.04114158061838579,-0.2354613482100492,-0.03126804199877591,0.08558665706590349,0.047171633567290025,0.04438151777787922,0.031644219721297294,0.06140520880998775,0.014888172355344101,-0.07796557242784334,0.07576717155979516,-0.02216606742518021,-0.02927056188142416,0.017647732321354734,-0.1535002364910768,0.0888635486821891,0.055029749605790976,-0.05154622434527506,0.006296107761607217,-0.2903027976679324,-0.2258094253747767,-0.00023371546521884655,-0.12666486550626807,0.16459160646114904,-0.035889823049523414,0.08053234406204633,-0.016197104806266335,0.027915104131396896,-0.09708651293433697,-0.005790560949590129,0.10534548212072437
-0.06364387411174056,-0.010109404006842307,-0.028927507927939064,0.03163351918531916,-0.016043739445019085,0.012488069242213296,0.15616098447297047,0.014648686701534368,0.12333864030769384,-0.009201289019842424,0.02205200291087047,0.11135971702972432,-0.09714698089320534,-0.02714133038840068,0.032425143542465104,0.013010852381738935,0.12273438124858137,0.013207362421615115,-0.05911155286144787,-0.047958917203815864,-0.01765080688041286,0.007898171276428683,0.05159411216250173,-0.05192963487233032,-0.09261624542529649,-0.08546521772909377,0.07271249150457479,0.040573815671174206,0.03808014631729185,-0.04600160636449806,-0.004204807811400545,0.03154629500305903,-0.20277297375118522,0.08385461523230796,-0.06737377748496373,0.1197416601526857,-0.0276462605257806,-0.21445568775099288,0.04558443849573738,-0.12897248345746024,0.07980581085332276,0.03261739887759097,0.0527038249899448,-0.026446697382235103,0.12588963790106286,-0.009511585745553268,0.16928857574547201,0.021412705757794567,-0.0211424465083827,0.1113697329767945,0.14491511044938757,-0.04426789955048243,-0.019352197142315675,0.08677296813820506,0.09265898661535996,-0.009088075542350771,0.11457918911081635,-0.03838047983091974,-0.010009302858856164,-0.11750677953209804,0.057040964166908445,0.02822141202330595,0.037573278988789996,0.025971489223571384,0.7015908258829385
-0.016789990466472032,0.02599718763547755,0.016948432870594096,0.015682326243587286,0.053734654144089164,0.030140245687403908,-0.013716171812237013,-0.04013915716838305,-0.03134461759720243,0.031321282483100996,0.01561703586298191,0.04073454585445303,-0.018827432647076633,-0.04335888493675821,-0.005165763220056921,0.009256404849318042,0.017509310122488922,-0.01274382521051097,0.04311127262351393,0.021885231467490468,-0.03413576702760422,-0.0488862290517761,0.04573008332760366,0.04460589539492227,0.039554487017333995,-0.04980227414233673,-0.06226815514773339,-0.04426345689699929,0.05203400402602386,0.05583379488865277,-0.03829898771544557,0.01734064700131424,-0.05781273857248187,-0.04513326428028849,-0.021318582088243873,0.011455767978788958,0.006875096219454743,-0.01755545927438508,0.0037524459005519595,0.015815023962768307,-0.053676052428423646,-0.014402984018850443,-0.058794939076909344,0.0066176054547439495,-0.045681501373183,0.00915646147322352,-0.05081456806898611,-0.0013014329549445314,-0.0586368813239124,0.01888389068644679,-0.02156209248242273,-0.03374235974625066,-0.05163853675221505,-0.020474128774985195,0.02528004429841456,-0.02955975068345791,0.023197131492661477,0.01377155917767045,-0.0475415797117993,-0.05663424386384573,0.05401635350976168,-0.02279320524817427,-0.02710684002158352,-0.04060114718024893,0.07418006843333991
-0.02516355974919156,-0.06023167435918109,-0.04638605718726174,-0.0383920960768982,0.2174061617229204,-0.04853813620707138,-0.31314734899365493,0.05132371666911238,0.6843314139350579,-0.15421369690226686,-0.049009538303969744,0.022343755819706643,0.1533891809955961,0.4460080321145319,-0.11797893786343461,-0.012285182625882046,0.23645715000909542,-0.06767729961811865,0.005162524461844197,0.40226529319190696,0.017010597885148276,-0.24256414255903228,-0.006024879000286954,-0.0493514377148227,-0.05526157199614291,-0.44754174593337415,0.19129242430531818,-0.27728995817248525,0.04660863344332746,-0.03929665671301634,-0.0021359471085444478,0.03642380641302143,-0.014281966200162014,-0.40978293324246884,0.030296304436198275,-0.44516182685796246,-0.045149806882993374,-0.30394720366181377,0.023386770092831587,0.3559911043650194,0.05088211671982538,0.34572339686494735,-0.15033414111370555,-0.20077422003293485,0.2857447696921755,-0.010382781091468087,-0.17494566240893575,0.029874881274121662,0.03134252414671132,0.303525025408301,0.06819911873089121,-0.009171509974101454,0.028073834060661787,0.2282317242822696,-0.19416181253980852,-0.055203739039029975,0.039560164604328533,-0.02343742623388294,-0.04982280185258277,-0.577226612553057,0.019069402922349182,0.05759116746345427,-0.08476549968666436,-0.03418130793462659,-0.9219351277592855
-0.026498297808555577,0.02870353667713693,-0.051885268116612135,-0.010695129362120331,0.051667913129259724,-0.008264825649342,0.2347394175121276,0.00460799487082732,-0.2981523339581633,-0.08978918470630924,-0.09346554984453251,0.23856682580181104,0.02680911978410292,-0.005946848537924475,0.22266123662042422,-0.007318730953370919,-0.18103245898425685,-0.0015201915443864686,-0.031077457973526984,0.20075748911297692,0.0035192810187223283,0.10119856287864472,-0.023829986071315472,-0.05970996213615583,-0.008436360856878504,0.15567404417682873,0.311495187031892,0.20487420270377518,-0.02660701280117465,-0.03694230595679139,-0.061236848491806654,0.015779345339498842,0.39542072340850054,-0.24565598107919911,0.02106402152771299,-0.05920299861888901,0.005833454946704813,0.5530936956653245,-0.04513563642219903,0.01315643401245048,0.27495408316910613,-0.0628340586517522,-0.028096514916639417,-0.13291384872472417,-0.0625858314981473,0.05146632973285093,-0.7934493563437318,0.0023646548754970714,0.11130082802152305,-0.07165867068792629,0.2533442124811739,-0.0291383124183597,-0.0057927585195722275,-0.18370315828999925,-0.020418046631986323,-0.02189846612838065,0.09501106926085238,-0.26152370461047747,-0.03988684598243766,0.20705939032011442,0.05497400326417602,-0.007676469172609376,0.044602783704176203,-0.030752977404625237,-0.3834769823381518
-0.05193279521434911,-0.06055012453550382,-0.01762026271394588,-0.0015288067375714004,0.037528341912614546,0.027208766039575033,0.02608810948390421,0.04590467000782069,-0.044854099596731506,0.05393571067954289,-0.02216261136579274,0.02602967109033359,0.03646584708670504,-0.02224802157309407,0.0044667226145216855,0.04406523063619254,-0.014478793344687874,0.020138886513512862,0.05467057116489269,-0.0006604946697654902,0.010794645476575646,-0.0032631765852019524,-0.022820830978856167,-0.04190597011772397,0.013483945560289725,-0.008902312077145947,-0.05310045136291788,-0.03454689970817425,0.023306839861382513,0.010570839411909838,-0.028313083437538543,-0.0011814147424688264,-0.060439659662448325,-0.048182021832820075,0.006191836151417107,-0.06887459114720292,-0.01519866802533569,0.050505739254939765,0.04397787854302345,0.021689060223764253,0.0367060948321223,-0.050522431661623644,0.016595869649005942,-0.0002240590505308673,-0.041840289435231964,0.01716484244456956,-0.037460568210895495,-0.014823182771381643,-0.061371317715425255,0.015032215336184726,0.05375078658940033,0.05779299549761668,-0.041974127053849106,-0.059491331248942035,0.011707589505929967,-0.041747577723996815,0.03412941796853349,-0.04984084429119271,0.05572072115490173,-0.05600023464790631,-0.050449813011411715,0.0034289960439488772,0.012992811115604772,-0.01574276689169475,-0.26753334600711365
0.028146975128903295,-0.034174923041092445,0.04886161065090905,-0.06146976960545694,-0.05365010415582859,-0.026674803846565315,0.03753436314984464,-0.005146077268559118,-0.04210264426089835,0.0274996952615386,-0.04633326047295716,0.015705627324628393,0.03921788171353144,0.03256959483967099,0.049273343754603016,0.05533497634014503,0.06153358183133868,0.02072848231793241,0.0413208812758261,-0.03972416872230014,0.0030180535365186417,-0.025132144607616994,-0.022893926183179356,0.02926001918990423,-0.05383964934377336,0.02174603841313613,0.03930645575983176,-0.02685667920281859,-0.04272845944413864,0.008367504580479385,0.05072707341486045,-0.0027175783376356677,0.030962798253320836,-0.015925891390596345,0.022950188357443363,-0.04265865296447173,0.06020643687791438,0.03874372813081145,0.03252305703049488,-0.028670334229460234,0.03273481879760512,-0.039688964880236766,-0.04715340799551544,0.024047472225103297,-0.01827072087379676,0.032037222606467616,0.055321414105611005,-0.060922532936480894,-0.00040046708001728604,-0.035946116518812896,0.03486557325919962,-0.029390463307689532,-0.02629283654685667,-0.018142580431850228,-0.034425540125081824,-0.011354257185556521,-0.002657419036625072,-0.006899023502820914,0.06209652545238291,-0.0464030525700105,-0.03411266392432462,0.0050588966947642255,-0.021098194053447122,-0.011973550663841107,0.23930275171208326
0.03432703620144316,-0.006435334005265109,0.0521105888581557,0.03013526645719722,0.02099623600732123,0.023771378452297057,0.0027407083328868545,0.019706453762538073,-0.03218883114130119,0.008058491827035932,-0.04588528523235193,0.04623980549836541,-0.05732891937872892,-0.03169034466889832,-0.05422532559966959,-0.03127878565832025,-0.03340845881274413,-0.06126398679174591,0.03723197738148189,-0.05879395188059257,-0.03746759943318183,0.035079943018336314,0.05009631737936142,-0.06199727625708586,0.01048287400516095,0.05604243104227588,-0.05651552218768222,-0.0393076706716078,-0.02621258643629476,0.029249275970381974,-0.04574673664803924,-0.04097896570284525,0.04472718480072055,0.0574805165686368,-0.06198941658893136,-0.04103241298828593,0.009729830184823679,-0.04717515993026158,0.05339490197159874,-0.01722515952196688,-0.034691867626104905,0.03847929516450987,0.05114299408792854,0.05972948141979955,-0.04243813778990368,-0.05424603774585332,0.026359949083477344,-0.04866794671250954,0.02317905196406892,-0.01005843876063558,-0.019138447906739103,0.004218885532169925,0.044888016402675854,0.045194557708383216,0.015145561871536513,-0.032879405888228706,-0.05085084234068617,0.03433476742082735,-0.056535482774141374,-0.046091453629501275,0.05322514471887213,0.011637188987487668,0.02318202424893212,-0.010374315240348361,0.550274809511298
-0.04136962193516594,-0.02896640564752591,0.036424784082987494,-0.06114732250363311,-0.0884108212152595,-0.06160405129699077,-0.1333658760243569,-0.018614090140393273,-0.04983211358531213,-0.059767002409103924,-0.04508930527618307,0.13927845555458443,0.19577843295302244,-0.15158908205384358,0.020941034544556616,-0.032995959130656005,-0.021403252279633904,0.02649637123262981,-0.03554082606239947,0.08857308128613565,-0.05702795954216096,-0.05545973377379003,0.056792573261641194,0.012843402417757596,-0.037630900163261656,0.1346901180512466,-0.13489469278440794,0.05844016665919435,0.022270501890839487,0.04403464591798284,-0.0031130913149843187,-0.01305904562410569,0.10295124650205764,0.03655365157951059,-0.014834227028421836,0.1775201115428281,0.05284028303528006,0.04890848921442819,-0.011707732372483563,-0.06406073285327339,0.0693324510485329,0.022177947346279057,0.005235879245729522,-0.029084355655155245,-0.12296041230107603,0.017001154901511033,-0.10897974509745802,-0.052634510006992485,0.13421978857836306,-0.16967491905153506,0.007544354280268993,-0.02123277307545746,0.024911580829161742,0.009420862020191559,0.047954663991685194,-0.031161700497489488,0.1635481054792975,0.08261334804560799,-0.017356871407149782,0.14332983389331536,-0.010931571475150587,0.008317272769668472,-0.0947132508309721,0.03827741828804444,-0.9173998362407446
0.009091090137860386,0.01595972519879027,-0.023282909705776275,0.029277222308894194,-0.05824860900946502,-0.057620980856254236,0.0002722447235250086,0.030798720373157368,0.022059106590976346,-0.04901686645002902,-0.061652493709049544,-0.04277187563592545,0.017133044099095968,-0.04781246672299337,0.032727656962297,-0.01678098735915394,-0.05997735070094708,-0.054558822889504546,-0.016512419749453514,0.06216863266991106,-0.02679601154194454,-0.02143822820519499,0.0004525614856712018,-0.009298830008837258,0.006135819679431401,-0.044003609826254245,-0.04508561364339082,0.008634521016821467,-0.05566240983158613,-0.005979380707465523,0.020438227699601935,-0.04455326111504235,0.018408741374687773,-0.04844948912826595,0.0217974401821239,-0.044823029837712816,-0.026361503754982724,-0.030852585727360368,0.054206841292380514,0.023913778107280334,-0.017410188971331425,0.039753869336884656,-0.04551719771422802,-0.02001513464670343,-0.06188024483885099,-0.04383059503511842,-0.03354040062248119,-0.03842154870965121,0.007135604453421221,0.005972057627768798,-0.027540432966458056,0.006462821315787265,0.061307218441734646,-0.03588187015548741,-0.06002060273295459,0.04736384961836082,0.03307334613798674,-0.040412995534301166,-0.006811746170238525,0.017904199579667476,-0.03241566398396649,0.008238131591809306,-0.008596137716446434,0.04718106273399915,1.4065343242239523
-0.05329549677349631,-0.02135982857917952,0.019598761103258946,0.014308614582793144,0.07805641818838223,0.03548335969955882,0.011761644858282117,0.015113983143192594,0.004371445657702018,0.07722737611977526,0.061220276455823286,-0.09784479957272159,0.1419887431484138,-0.06574994299049233,-0.051554298551092406,-0.04195735969786585,-0.2137032896159796,0.022183701246936683,-0.05866786126246509,-0.09407853264386504,0.008142189518730705,0.0818307287510344,0.016725098485685867,-0.02893787054199183,0.05242887391114274,-0.02142462648104141,0.04488296085169237,0.0775918737665648,0.05595444286747913,0.01868774820720616,0.007142879167805897,0.061432042849461334,-0.1483690602616609,-0.01442087515933805,-0.04004373414329451,-0.057102384355786275,0.0019556677682799548,-0.08043472890654453,-0.02992696529759246,-0.027369900186995623,-0.09150630526697913,-0.04384176079505551,-0.04646400260706926,0.03587006218394147,0.004480723920627843,-0.03110177569251119,0.24531681016430174,0.0021750465917201867,-0.04676664000140234,0.08562022999592668,0.12025344575837298,-0.006610711995397388,0.01976570495057048,0.023378236401070826,0.11939790090462123,-0.055212419818404836,-0.08884017729412534,0.17644323318978677,0.047540139766884745,-0.06158015847326006,-0.017591616756597317,0.028169256208731012,0.027395959696041344,-0.051429541457557695,-1.0036102367409492
-0.006355871853335894,-0.05593071037865935,-0.05222617718124642,0.04516718995431335,-0.0021171396687606676,-0.03664952083032093,-0.03274437029570993,-0.06163168337867535,-0.013036650859714536,0.05633699409023702,-0.0025156221721145977,-0.0648098675344087,0.0358225238336494,0.0257494908445405,-0.014614847125945133,-0.02247442517071581,-0.06252376600026677,-0.014824995966846851,0.05501156089735677,0.048102747074146565,0.027925797604523475,0.009357760762237667,0.0390883093390629,-0.03227531352944231,-0.04920054778352113,-0.012945877958608978,0.060573685821767434,0.0015049915368399026,0.00452970162884949,0.06070279167164071,-0.026047603916854956,-0.034821837898980364,0.0007817594665621092,0.042079114463186254,-0.02013807075300088,-0.0346493736368673,0.02295780668651351,-0.004304487065933112,0.057405017168589936,-0.03927105698316666,-0.01097733307074525,-0.003974766029795497,-0.04700816311698235,0.009974302700941693,0.019710130816937507,0.03943621515985221,0.061208657417754594,-0.0192468036959917,0.04946673517063634,0.05460248412150012,0.006421617678081128,0.027840669238148014,-0.05916872894639824,0.0028781610593947115,0.01707242687968326,0.05653411286055319,-0.022706513053414933,-0.008133137396059937,-0.05994528058614915,0.04712161446140011,-0.022601381923739644,-0.03264323695095483,-0.051041732964915806,0.04450528137519917,-2.065851946350055
0.004907965977628037,-0.001360177734144652,-0.04770724478258516,0.04225379449689305,0.12751225650935802,-0.034456450056945656,0.12118918386708695,0.042996406374768786,0.0582121298256681,0.029732452076844215,-0.09389731641930969,0.07661368173373724,-0.24515961101893574,0.1957147506677615,0.13745366762157765,0.005593157181147404,-0.10385291906759822,-0.06410692565942941,0.0074556779594607695,-0.049149273931889066,0.034793201970245644,0.09067364230337947,-0.020448941644935246,0.016789545387083188,-0.019909827991652588,0.028072901670868827,0.11638652033340786,0.03991876547028704,-0.0013006442528198522,0.04262361859796951,-0.03656311463271741,0.058378383129445856,0.04663203447011691,0.047571433819956724,0.03749073815997345,-0.002401475226565423,0.00969541145400154,0.020464110920801568,-0.0438215806404824,-0.09009649555585178,0.010058702576246414,0.1498240521451025,-0.012812472262926132,0.024604487077792295,-0.07432345019215547,-0.05425552407118505,-0.09681402322355537,0.020598280957625406,0.22017428899687547,-0.02274358064538439,0.06727546549836405,-0.015041272592723379,-0.009184045611558542,-0.07284271559081695,0.20999326721900316,0.05069673788234384,-0.05467037827207483,-0.03138295036686169,0.03229422478779333,0.2767378927370797,0.034105395506707686,0.023162044753600248,-0.03664387803458467,0.003129966850567198,-0.38683673683550535
0.007511774023788878,0.057504765619555434,0.0010959610075248348,-0.043881779253786946,-0.062418023556064545,0.03140008636738112,-0.050201009209844744,-0.015710764114641108,0.19907207311691758,-0.10751514607173338,-0.053190759927834105,-0.000583072295384901,0.07317893132145584,-0.1343278720079409,-0.03708676797832549,-0.05923536407680623,-0.16538183558373432,-0.001960459186718425,-0.04583719096215805,-0.032269684847518576,0.0058422566843310125,0.06378145068922114,-0.045713729898957715,-0.05872095874495645,0.019968497759629257,0.05364728290644395,-0.10502116281701818,0.04844169994344642,-0.001064968017030806,0.006745541465763491,-0.019968725347363325,0.0009953875297033213,0.15180624737623796,0.16236486084410193,-0.04147441052035345,0.04180936321286599,0.005444085965331943,-0.08569553640568436,-0.050078973850624535,-0.009804163411166243,-0.03946988653317423,-0.07646036305517856,-0.02075179500508793,0.012908502452996221,-0.01946164739875411,0.00800523398310534,0.14525348831200494,0.03436724826251435,0.18659915746338704,0.03800422529280432,-0.055824536286944906,-0.02622187125110683,-0.024610723820046684,0.14710863742503819,0.09488146215429978,-0.03475769901499378,-0.06961509413542061,0.20123259536333482,-0.04745333324305298,0.05434922032116814,-0.031248988664362654,-0.03580425516488151,-0.03453679378440618,0.019714889411423922,1.4602690980641382
0.025746489482898958,0.022328757081515424,0.013172062172077078,-0.04410887874379306,0.09858618356700057,-0.016763346491022874,0.03414158691601314,0.05744420729318308,-0.01888646156583011,0.10767705706709571,0.029322832712431628,-0.07172526985327837,-0.05573058752310974,0.1465033598684575,0.05230557044226864,-0.05224876223894513,-0.028195303883394356,0.04782736213198941,0.01162811536631413,-0.007818168541869683,-0.05395910455742077,0.01049455038441614,-0.02393429051784236,-0.05057194330747021,-0.06064180141499592,-0.020454937241013046,0.01709672646455555,0.13962947056508868,0.004475072382386863,-0.028794853861628986,0.04200565643970345,-0.008945616646487069,0.05589979023016297,0.04903749998900276,0.056584762672769406,-0.13277249106787428,-0.011792999488669133,0.19099117708465121,-0.04429251911405549,0.17465248206305348,-0.08184723213610705,0.012149967400730247,-0.012973902760426325,-0.028431829434895955,-0.1701934542692341,-0.029682815041063546,-0.08597943706895948,0.0027709030430298626,0.024696945318469186,0.0757954855397964,-0.007173688900934615,0.008433550962257386,-0.010077922286318583,0.00019042538662271475,0.0007568316604781278,-0.006741636305492838,-0.008250144011726782,-0.052397006379903556,-0.03877334758245034,0.03129548353722522,-0.04327434558804889,0.0348830472380607,0.05419993584812991,0.05718058701053702,-0.1745304600824602
0.05947651421668472,-0.023926683355199985,0.020947050955228502,0.03433807511449692,0.2974408870973211,-0.05622115262622024,-0.04942796836132819,0.03884011320599129,0.6435067380412551,-0.2567503389774247,-0.1723096072118107,-0.40017336344501714,-0.3649148002645794,-0.16667002739347148,0.2876260824751985,0.021903154511072817,-0.1777949905263216,0.006904531147475895,0.029844895390197374,-0.2472344242622738,0.005148260913369437,0.11430840183507801,-0.028476744479680502,-0.011870803359471577,-0.06320736479196967,-0.3089631769259678,0.342254811358386,-0.09393520689670788,-0.04481632048637513,-0.04563559368165043,0.053142299902650195,0.06759840690635974,0.10251734718830517,0.38591747050500297,-0.02055585273097928,-0.13198348711405125,-0.03644048844565468,-0.1257505769495734,-0.02912866397203329,0.05760128448883271,-0.1302961795629783,-0.06540561037400473,-0.07971508736582032,0.09738216333968916,-0.09611466813011102,0.04641600963711143,-0.005125597947026871,-0.023075560775192364,0.3268731506050277,0.11924697210787431,-0.09866987658015491,0.016993535121446992,0.007578425951691364,-0.20188250839505628,0.07762888538414316,-0.03604728789814086,-0.3786506469092204,-0.03564565283490126,-0.006119293539549972,-0.004829484757964574,-0.005688552311176126,-0.012879235731864946,0.22819500082331057,-0.04855814548935032,-0.4669296488796491
-0.009244998510607708,-0.020026281183384523,-0.04797834191250351,0.02276990602232659,0.4372211706753131,0.006164213014259401,-0.2061262574541976,-0.01378736085776855,0.8561712704514519,-0.07852515525728443,-0.0737664959916494,-0.3481111761119541,-0.14759915400911247,0.06540863802406523,0.35930481451759666,0.035601294852732265,-0.16626328595812068,-0.10877056913367775,0.004406026284694309,-0.03002399435082245,-0.015373327802822204,-0.1305421613444053,0.017721904303590448,-0.02917348234810345,-0.09267903271900314,-0.5116924440742697,0.28903472959959475,-0.156690425865419,-0.002254680774175597,0.04759405802941309,-0.05215545857966708,0.0405150969482626,-0.10270188571844066,0.44507876832399224,0.009658904958454109,-0.17039784857689505,0.051457326341138476,-0.39436148259067444,-0.059992376047254194,0.21766114378427978,-0.08050330469543002,-0.06085410539050164,-0.10861422312247385,0.041679982014213975,0.022215162464693697,0.08286484918595816,0.1965353713947395,0.04446060374314845,0.11350942623053706,0.22535347239457668,-0.27868809150580653,0.05579239993655551,-0.03058276718550726,0.018889206924998733,-0.2280191841336149,-0.07816710535838531,-0.35210914426796264,-0.10379499750238201,-0.055828118678854774,-0.3519694668918413,0.05806978255590764,-0.022999565696365475,0.23547470819195,-0.04925222951062236,-0.36753914850458647
-0.04081735793959116,-0.026601313694345513,0.014053957013268418,-0.022451360929318973,0.24133304809273243,0.05185214971187653,-0.09820328609562684,0.025189858996349353,-0.14580608990883936,0.06722860284874813,0.030223230543588928,0.2985271739296109,0.42457353559814515,0.32237364302019034,-0.4626806901746086,-0.025616276068388913,-0.003461301857006741,0.020488546390544014,-0.030625258161864854,-0.013039552222501161,0.017595965079064135,-0.03305664818806212,0.048515472246770254,-0.0038375251611554584,0.09766951027577299,-0.02011159398969974,0.00059380192424447,-0.04292616234610457,-0.04297412052163522,-0.017006487674795054,0.0410955500253562,0.04124573680375799,-0.1793026104172991,-0.4880771410512158,0.02528699108315609,-0.09488122031980063,0.011238055059961696,-0.012178090533536043,-0.05752038071695638,-0.294202381641524,0.07483520510019522,0.13273554389253062,0.006953472795363328,0.07265651317336258,0.015010643375302609,-0.0013376087812842286,-0.23068314175397034,0.010050203418375245,-0.12914540200954125,0.16053826525046677,0.542085527826621,0.04223831979467701,0.008263614514791226,-0.11712587814669065,0.3529617460038895,0.05603551089352739,0.23663536577014901,0.32507905842621304,0.044677170787306444,-0.04654921521090642,-0.002465709291018525,-0.061474146721311684,-0.5352537910019879,0.05946081531230832,-1.40715115015024
-0.055692312885911574,-0.053430206932312596,-0.018489570035404357,-0.02014109707346294,0.07678099197717048,0.027072066496187264,0.2664225387528303,-0.03917422265001651,0.016311211471799567,-0.1894824883829284,-0.10415058720548957,0.2940932288414673,0.13519292603929695,-0.1439303077063066,-0.16709445033963521,-0.06063991960668122,-0.15607586573446122,-0.0710249388981059,0.0090186710897132,0.08665096744129491,0.021982104482271475,0.10437417898053716,-0.04561118311951526,0.0052171452395441825,-0.019710229381913597,0.09610591249949815,0.25645914013406496,-0.0012598697308658729,-0.06218531668940515,0.028782752705628953,0.024003684716238018,0.05030919049115351,-0.1518845145582123,-0.3373232026388268,0.05884339961859506,-0.07012040049290166,-0.009263355794989159,0.05384642559998936,0.04071301622797963,-0.08065485732364643,0.0885349407393956,0.056639136285486086,-0.025239558959317364,-0.056321417581190816,0.09507132153979854,0.019870707413377712,-0.24426933090330438,0.051543825354107536,0.07157692688030573,0.07774260550215414,0.20580811359022608,0.021342265512733802,-0.03567082960794987,-0.0718649906427847,0.3644542663632762,0.08096780635810581,0.09259372987094144,-0.08409942094960438,-0.03098105802130187,0.0005875863592505853,-0.017593618458383226,-0.04266272052298252,-0.06229682939729481,0.04622229596517688,-0.7516578983713302
-0.03486804668327492,0.000934085232244905,-0.031556514917438855,0.053031789255824524,0.029645562189073632,0.01974563093767165,-0.05412214163600265,0.028107286772680748,-0.03356243246970865,-0.015375406236529526,0.017560471273137437,0.05528193302493557,-0.005858391768782681,0.04410507823190467,0.051788892035256315,-0.06092684329141376,0.039903730184947805,0.012946731186098168,0.05295476475400518,0.05320682253876115,-0.027786859917223752,0.005950455048843575,0.02668266432832314,0.00029867518110193725,-0.007040197449243793,0.014190701214008214,-0.020944364393632148,-0.0038196461956278016,0.05573417467927139,-0.031636316765679046,0.020870604424635827,-0.0571196988601317,0.057103649135106335,-0.008866169184562539,0.01380920214597986,-0.00238864591936358,0.008121836347082745,-0.01145014285482554,0.026394836287601267,0.05102586978277941,-0.03288267139430216,-0.0018148248030370184,0.009141966777583568,-0.011685542585344155,-0.053270428748909804,-0.013732364025120139,0.052711208072942606,-0.017032598702316937,0.0463907130208889,-0.048837911684221566,-0.0026013920978315286,0.049039753641833134,0.007970328927709963,-0.062042594390744665,-0.04349625636411353,-0.03368772578465816,-0.02190106951641753,-0.02060467810304621,-0.043220752369877866,-0.0024536947387026053,-0.008931475889005266,0.04314446354428622,0.04081897788986727,-0.04775430965061829,-0.9772720901877645
0.054353355002664715,0.015837162378424197,0.0014493696480795564,-0.03010828157030883,0.0036073237783265555,-0.024628391553086354,0.03992858136177676,0.013642395312615078,-0.04101141170845404,-0.2693169694078061,0.06803068807015807,0.17753450225102996,-0.13658349525352192,0.140306432686014,0.15967746021452608,-0.030131937507163295,0.10719256646197381,-0.06548352985203937,-0.031110162241179837,0.05337719575589454,0.04695089270716747,0.04948204779840854,0.01327380810781427,0.02010748977479196,0.037304800742931445,0.09684162651313927,0.04769469061692097,0.0774683760453995,0.04838527376837368,-0.04764010093311172,-0.01220672163747349,0.015796992023108206,-0.04859540703689056,-0.03819563940406317,-0.029945387332107578,0.011148526536077345,0.01093833905642817,0.03163930451199597,-0.04685493802830359,0.06457785364509229,0.0322959280768348,0.06113916956757145,0.014119472798939185,-0.07925871507759696,0.15016205955898856,0.02850782752381995,0.014086216513326512,0.04926583664467718,0.05293580867854581,0.013415148861437395,-0.08205812786842782,-0.044615820416671975,-0.004193682486324221,0.19369742401258008,-0.11935070023321778,0.011792716633463351,0.03186542032321246,-0.15709222956781443,-0.03997743275058639,-0.13345491204648433,0.02021263716750238,0.033835849240098116,0.11974472975498852,-0.007309538624817563,0.7174269786555524
-0.0023164453989469452,-0.018477977735449458,0.006092880673698509,0.0005623153572646838,-0.03012248447295786,-0.033481574879243386,-0.0360209494585665,-0.01894241301643257,-0.019607709133124457,0.029327619338836458,0.017669937184706025,0.056149523594583806,0.029368761488967193,-0.009606897833873487,0.028464049840922184,0.004781623759164022,0.04979244003675745,-0.05123194554201438,-0.04399556912391406,0.049975520874542975,-0.03294437498332775,0.04067298581061386,-0.03278424869211802,0.046762707061487205,-0.03411857146444415,0.05500216322907024,0.013036632661906272,0.00774543123388316,-0.045561219308799084,-0.0063715564386909035,0.05618025829224631,0.017144996901241494,0.01057045159929379,0.03755111573459155,-0.05870797392202266,0.019329765580244573,-0.029674093571663673,0.014701782679556671,0.05040132052759157,-0.036740950753337234,0.014751082106116975,-0.025346137581040873,0.014601295476809897,0.003966348468393582,-0.009992356302540625,0.01589046613586241,-0.04701710849856805,0.0265074772162103,-0.018079243889335947,0.029895345127715217,0.03352227925592663,0.02592837620200758,-0.01573666887304659,0.005427701396136936,0.01029236277095244,0.03147939168205792,0.05183144066859942,0.0002713746911159748,-0.03538305637216008,0.006762337172270538,-0.060109426858787576,0.04623814642105595,0.045767723703837956,-0.023576898921854994,1.4563536146048461
0.04742979471482079,-0.05841134805756146,0.007587407614804907,0.04561656402195806,-0.015246988294291086,0.03070874622175039,-0.6163280484855228,-0.018061045590221207,-0.32779380773149175,-0.07574854942083796,-0.10527693325388275,-0.04602608630850139,0.3613719449164275,0.2806473266282441,0.06621649300476257,0.043707278880193115,0.1898434749374628,0.005224602045216506,-0.0414960137056999,-0.06907040987822564,-0.013369252169375526,-0.2307395953791653,0.047098002562511156,0.04195912756136651,-0.009945718911077303,0.2550743572857416,-0.1940171920539559,-0.2916762592296412,0.05844549268598951,-0.05568940802526731,-0.026565367894222376,-0.02047455380635881,0.030267651897527916,-0.10943938547769735,-0.06740271630477666,0.027048359276590283,-0.04547243593828178,0.3444481247349749,-0.04260598391350636,-0.2789581931693457,-0.018376507890288704,0.40139099043659365,-0.02355893044614934,0.040672101537077544,-0.036287487944894274,0.02684156303350465,-0.25508227006537204,0.015809767075010722,-0.01887960261376094,-0.2959399292053995,-0.12007170280164207,0.030141845376970514,0.05123688274987864,-0.1732173612265312,-0.0461909056020861,0.08045938275504382,0.001224856222910798,0.25272848746507065,0.04102434456661,0.14416343802794432,-0.040338131710549244,0.04618648478040787,-0.16724252843652263,0.014942258085413496,0.21382787787460275
0.011955621112898477,0.061900240766220554,0.018022344174676748,-0.04439231356315769,0.04868315206356451,-0.020920003985002406,0.32967814291502984,0.0242546103832549,0.326702684097596,0.10851107441105205,0.15141162309525402,0.14212616721351612,-0.26494782397103506,-0.05913496736495117,-0.03464487634119973,-0.026384211404219773,0.11534644645874022,-0.08902987321462728,0.05550545132442703,0.07386876644435011,-0.061148491336212654,0.06947329441570525,0.048497605179000564,-0.06020343197772264,0.010294957534365783,-0.23559735701511872,0.20370662111707527,-0.00855336130860521,-0.050592923522202495,-0.03054008962539316,-0.043448134553488435,0.015641571645511006,-0.3733686140855191,0.03167129417999712,-0.0030988020067607308,-0.036017232199391444,0.05737184792588288,-0.4152466274957034,-0.015015592468470907,-0.04008149411949921,0.04823862842155445,-0.1554413584698532,-0.021936062625486096,-0.040546410611848285,0.02500676139017533,0.006469592466289097,0.2708865086673697,0.04985073194392084,-0.15140437130959247,0.2770254640008513,0.1532752194832951,0.05467343069411947,-0.01681553352020594,0.1634448022401737,0.008113607822838625,-0.02180138075399661,0.04864439061173526,-0.22950851056836372,-0.0022206258143743357,-0.2124822497072851,0.02033339658560053,0.03850135156530093,0.04283371912134786,0.0014342327532398669,0.4116988750503765
0.05101488546307284,0.06157290434184186,0.0016398188817696518,0.015714549037809472,0.22861818826300437,0.024444551025682285,-0.5177813631611303,-0.03220591358487352,0.6230808608297503,-0.2129164005340569,-0.10174966621989187,-0.0003144290448847479,-0.33102731572776856,0.4354521370088879,0.3623200122943272,0.06194113595776135,0.2609743910945153,-0.07173473927304387,0.028357854753454752,0.15810943554209955,-0.02841454271755986,-0.22246804817867824,0.030593641354005212,-0.04447886185733227,-0.0914076196624003,-0.28250684281684646,0.30159836824779246,-0.22732451222210442,-0.018614565090206266,-0.04532488448001061,-0.04891211716788939,0.05817634782465829,-0.1367373121914113,-0.012785408150315774,-0.07948878434185085,-0.06250138391958675,0.06064750989159754,-0.10208773898682415,-0.002480270353066934,0.10458576790149121,-0.09461449246860233,0.43831141340704116,0.07395240881536061,0.027659853019498987,0.20251090229079038,0.015704268043807094,-0.05669368001198617,-0.03838855487448774,0.17311282938689096,-0.04266460836391582,-0.4450321279018985,0.025741825260976493,-0.018835465034243964,-0.016849699513484303,-0.21800617926311625,-0.013423751105112859,-0.09402364033013122,-0.314675700129139,0.0057892817150137915,-0.10280505270867886,-0.03044795472568225,-0.033917511784255526,0.284478644863875,-0.0363013631717399,0.044867062346388945
0.022430085924232887,0.0585838265029531,0.007970924581068932,-0.037948396458778136,-0.14667205211342949,0.0500060229314372,0.11910213119467031,-0.013535012083547604,0.01938387802121206,-0.031210920322413023,-0.050292041437883246,0.1616756569910828,-0.14625398225335445,0.038953994938143235,-0.09531883696509484,0.04772161868950793,0.08303246612571472,0.037170774814684275,-0.047123174890835666,-0.005858891825724136,0.033317270386256204,0.20568117563511032,-0.029006447508144163,0.023963059269918457,0.047098396256513964,0.2122016264512628,0.06716159738297017,0.056979047528724736,0.02578027531787439,-0.05015628878230566,-0.02448504619455728,0.029506765743486284,0.0427783376799031,-0.10447607993100819,-0.00748437949505044,0.07772174789767955,0.03321181249934504,-0.12924028451693004,0.023196353217475808,-0.044246950136886946,0.12736062240699453,-0.04245406527100326,0.06995571251883453,-0.06900508569360983,0.26480397666445005,0.0610235913938906,0.03666627686876392,-0.05483168897922504,0.03196136590400326,0.02808149281061134,0.04732262459253889,0.02984939477036325,0.006259453411588831,0.09802459624138862,0.09049980685794454,-0.01010097696177249,0.11179365840140175,-0.15142128565151136,0.03487103124352152,0.08276892512461034,-0.005039779111566126,0.0574911634849846,0.05074965418134973,0.019273545060516997,0.8750493630834586
-0.007380041305695833,0.01175586427107772,0.058745804851676846,-0.056496138041146865,-0.04444945667629401,0.011219757349988563,-0.5679632120427096,0.033787165882851064,-0.17592662164031045,-0.1078284659410505,-0.19440348183264483,-0.23019888984418407,0.12014717259551987,0.08694119988759369,0.1702135430457067,0.03412041600416052,0.025051785211320794,0.13818210638184159,0.051410018029173825,-0.0287482201088488,-0.037055594974781336,-0.09684626177583171,-0.04006621207132162,0.036130078339760674,0.04850490466345708,0.28743656209526564,-0.19899616461076905,-0.13428710817421177,-0.005721646995357133,0.02366530083011599,0.06128212606454205,-0.04321320040764758,0.2677562363303159,-0.015046810087721038,0.0033531007528974414,-0.09035193995447474,0.047885657611150066,0.3758056225629705,0.042649789005029276,0.17102069903863443,0.10203826643063695,0.21733070278686312,0.017492084360053436,-0.13619534299137487,0.06335700761037374,0.0009977202663690968,-0.268954096131844,-0.028318913836822404,-0.004935107465692326,-0.18490731746950506,-0.31380508991496747,0.04968710871236396,-0.004817890717184678,-0.0926073002517366,-0.37624321794152893,0.0021140249785339535,-0.09360475172030944,0.0436283004043233,0.03847993232774857,0.09878140636096659,0.02389117894653814,0.05132975270918764,0.113697902936427,0.050672228914431836,-0.7449270235034167
0.03357838121430223,0.0453445835087235,-0.025997365617772966,0.03030204571898941,0.0162555634804121,-0.058152686308535345,-0.03526029349439459,0.021274349452038085,0.01927887436176555,0.0262900470763075,0.04355586365076318,-0.041844920712840294,-0.026568398915286964,0.02474737346610592,0.05453873627613376,0.03829061222723827,-0.05793818084298413,-0.05575091694983547,0.04262290528149114,-0.03171096967821421,-0.02042551856733843,-0.04196419571235101,0.02446338079422393,-0.0405211961472982,-0.03298912518829751,-0.025396914677817725,0.04871133041978752,0.04793527944423322,-0.011174610036689459,-0.01237273118280445,0.056427353573345426,-0.042832647544979646,-0.014441504728451807,0.06162366040438831,0.04261458299787424,0.02891352548167539,-0.017937135082039854,-0.004889009891952359,-0.01991569094263973,-0.03660364976805418,-0.0025079283061769236,0.036576121405301976,-0.011524047342259855,0.015713498415686727,0.05210955578704553,0.029310851161914647,0.04344017461501844,0.012737206406568544,0.0380191835788664,0.028215955272511306,0.051487882184649586,-0.048187812197404006,0.0590287529698796,-0.007207946383427297,-0.007689288232956865,0.044518034336792536,-0.04744385104206236,-0.03649756895522467,0.016879410087500546,0.045462840097880985,-0.010065894095795364,-0.03844459603465003,0.024560595024249274,-0.012002283601282374,-0.22493713794957573
0.03202885239617876,-0.009340301120001351,0.015450292703165978,0.06234410063365013,-0.0217366785539965,0.012520833039866883,-0.011988204748921859,-0.004468972779473754,0.06412332146024485,0.037280217388124245,0.07406096215756391,-0.03132745749361494,0.15647963319819663,-0.13772852689846612,0.02036327770671278,-0.041496929272252084,-0.0019384630231041563,-0.004447208427106083,-0.012422533458152522,-0.04615162357494904,0.040947626053032815,0.004406012301798552,0.045887837065702354,-0.015146962354791016,0.03991533383857976,-0.0260080802268225,0.018899182131123838,-0.03699945209165906,-0.02413831015918703,-0.013665047144866327,0.02705858181834104,-0.023653176556493613,-0.10773650792814468,-0.029178409158471807,0.06296918966159691,-0.036127216183439184,-0.02286230304882647,-0.0736905293299574,-0.016116706347762216,-0.06355562143747445,0.029292355685313604,-0.08696663139654408,0.043052124203695565,-0.015663619740670726,-0.0007170032865706505,0.06199391967164961,0.07597840255284805,0.022032303881223972,-0.1222094418378866,0.06235334259671916,-0.04251951763321511,0.017784535255181325,-0.05281697036287175,0.03222015613000054,-0.0038925574846104868,-0.031475948305552066,0.0833827125612853,0.07450952177557131,-0.026150638850953867,0.033493506801045854,-0.035443833604079975,0.058476250562117034,-0.033008224938910105,-0.03740062659132734,-0.4422537169513494
0.06215463482974633,0.05016460259225894,-0.009254829766344314,-0.03475489449396474,-0.030804189508677568,0.016676316424443144,0.0031457993037704857,-0.027090329824703024,-0.007315991061017477,-0.002481876182622439,0.02003276551307917,-0.00754258705580696,0.051421317992848006,-0.018035536393945284,0.019202759571475603,0.03303198976547762,-0.05989876882358941,0.03834097868788383,-0.02924281417835363,0.06017401680729187,0.008474251846898068,0.027604142141368568,-0.04121825384051658,0.03959608641245478,0.0024123714808276103,0.03381764037393631,0.06044703658196994,0.05231284194200238,-0.024882016094316117,-0.04202579502178988,-0.04130956380820404,0.03339027058837084,0.03886338627756275,-0.036726757139083105,0.026801679334444467,0.06128816742213808,-0.004618275162698915,-0.02727622522047833,-0.05954554750108855,-0.05385358675299126,0.02985939986099409,-0.008569952600398029,-0.04162224813348757,-0.004534330133623823,0.051460909331598,-0.024337962386610415,-0.024293766086145446,-0.034573389566640286,0.036410282915822254,-0.042082906825853805,0.038487591651819655,0.0295472376927831,-0.06125457032022344,0.04126890969974799,0.05911560488372396,0.05385761296995156,-0.028989964405680926,0.040943006672680415,0.04033934479563285,0.05836276701750864,0.060129076461906544,-0.006851789859947582,-0.061012478102468196,-0.031236870563418534,0.9537284311901378
0.007811579344397796,-0.06041689737820008,0.043033278547788954,0.04981144819606374,0.13259100128004603,-0.010773572125011108,-0.17797741584949409,0.021687430700124733,0.14313308861237586,0.009580260258179766,-0.04181391249384713,-0.017356053093411532,0.21448744816447765,-0.0024901018511366514,0.04734526323296161,0.04649158354523539,-0.08368177990313595,0.026413554955245597,0.02486770830954882,-0.05692504418735565,-0.03896124656067787,-0.13761423336115572,-0.009888919011867616,0.0097491919858856,0.03831760214736323,-0.10734786520961558,0.05212126758961601,-0.09546549235969157,0.04030369505179282,0.016507416870571126,-0.04462740876110343,-0.008372919962724048,-0.10592430605362892,0.08785826821961056,-0.02218790857825095,0.06428531668629833,0.06096522408260056,0.019081593215687934,0.016100911672113923,-0.1976044953637855,0.012638849550115261,0.17589234050361496,-0.003480219377417431,0.08591097867237829,-0.10875958221004502,0.027712270244855522,-0.0691826255300393,-0.002420110772175854,-0.11896343686526241,0.03572772594367038,0.08163033635509116,0.0069940338645962325,-0.05601030249384545,-0.12374971465036738,0.12678558093757908,-0.01448141331557168,0.009848181780507616,0.158880984967286,-0.05005628773138987,0.0019047257657493289,-0.04258450679074949,-0.05584945297463309,-0.15386839860180784,-0.052627254704580365,-0.28888524717014896
-0.03723660774774378,0.0057797519477995885,-0.048107194632698365,0.038176442149753645,0.06663444121068311,-0.021445563719592983,0.03680402777139132,0.03616550878106915,-0.03760455314127634,-0.045027389136188346,0.06676394461597529,-0.01886496238777813,0.08388289790888209,-0.21186130388503072,0.1280018637371866,0.001674691746841997,0.041785104755582086,0.06832591626503039,0.018596652086950927,-0.028257442725384507,0.056634371377570006,0.05090538206046441,0.021900141933379167,-0.06124808801817137,-0.0025894788007562704,0.06472817102106668,-0.06018609650906504,0.012679895099774196,0.05135511189119619,0.0017051252742947276,0.03399957554191437,0.06139391091217981,-0.031081064611884267,0.20585238765327554,0.0010161911789553005,0.10407820867991523,-0.051547953754171635,-0.01001219161966161,-0.031832998113503826,0.011095869989715318,0.0465065476905967,-0.08600427901444695,-0.08701485070455792,-0.04411547083236862,0.03328465999468963,-0.026284396160913204,0.10464341207577627,-0.021578033499324176,-0.011540646884599309,0.020568393780945573,-0.06120893815341375,0.04372570153960259,0.013131864316317743,0.05480586901127559,0.030663885031824854,0.026443752209749503,0.071013894213713,0.10677454578537705,-0.026599206891331537,-0.13082468964349717,0.04688203829772704,0.02818973751047821,0.026477476971020566,0.005001985944216483,0.10461466243633567
-0.04734018741806977,-0.04413589355964326,0.0008798756749637069,0.04717924760436344,0.010529501104707033,0.012068770257837674,0.008881623310570295,-0.018033766828284264,-0.018010505240835605,0.0757135519022368,0.0635933315893512,0.04063673459075776,-0.10135653875263956,-0.008102900877650088,-0.05126477797677169,0.057921309328072795,-0.06652702997806088,0.04986865393473959,-0.026059328291501222,0.02433670949350181,0.010520296551675842,-0.050153522067846054,-0.0019877340006444534,0.057977226840533205,0.08579879497929899,-0.08325568206757131,-0.07483749511218322,0.037431006003463045,0.004501600251395686,0.01892326487560221,-0.0451619552135167,0.04101630127394401,0.0823778748440459,0.0035742969431737663,-0.02872235086593321,-0.0476343421864513,0.054665786029980984,0.11516886604991183,0.0009426429950012311,0.09654383770313149,-0.07689228990598501,0.009421505711304018,-0.018670776508146525,0.11357329846544745,-0.05154422887157318,-0.03481910104835473,0.13748755343944882,0.05324095474679731,-0.06138721489012922,-0.02664258038559336,0.041515297816761575,-0.023731696080329948,0.02204489089788851,-0.035497973011376395,-0.023892252382297873,-0.05273002962111613,-0.054314060849877,0.08146934775918081,-0.008728964112634768,-0.07420260437111498,0.053455158494858795,0.00583558799335326,-0.06476290446938265,-0.0616742134219279,1.0601566209899285
0.0247059871299375,0.029467479374423025,0.05936007055754159,0.02392992659765901,-0.019969725140443463,-0.04245083202534364,0.0156437924055386,-0.048266183928751205,-0.0669229927664572,0.02336673810892232,-0.04020204417331868,-0.023206700067608572,-0.047903973124749255,-0.05909001381593244,0.023853467356861006,0.06014517095202722,-0.06011153761961095,0.03428055844354289,0.03017746176737235,-0.04682989520134428,0.006011992094362165,-0.011138004705943215,-0.03675388185686097,-0.04593446217197625,0.030943479791055117,0.06126867523321946,0.058588292164921334,0.0330571220178224,0.03544373763175048,-0.03868158358190513,0.02216182793819131,-0.060355575645646496,0.047128076225622935,0.06134966652058464,-0.0437295902452224,-0.025529685372067287,0.011246401248333902,0.026225799823067754,-0.0010748975462823243,-0.02930924112842139,0.0015544368269641336,-0.001477244127829265,-0.05831441624959075,-0.007817460898408053,-0.01823206819517078,0.00819592646406206,0.055455471132222656,0.0118053807391027,-0.009405647573264758,-0.03737768692211234,-0.05189304875960161,-0.0587220205032829,0.021476899710402286,0.009018303504007036,-0.031090758349759447,-0.016626675428548437,-0.06019608335500114,-0.015115286039434739,0.03006181547191218,-0.011340040925244979,0.04197095622168272,0.02330829919685503,-0.03494855335355765,-0.018601452614698047,-1.177976577448678
0.024362622093915556,0.06053108573422275,0.03474898528901003,-0.05401671932213374,-0.10207855159965318,0.04695779184156071,0.13933906641078683,0.05024729942276949,-0.03524244773253893,-0.030832021146184285,-0.007065536190210957,0.1643865109369342,0.11202278246612295,-0.0484683826495634,0.019893793179220534,0.038449924515184974,-0.13945080369330048,-0.01366830173346132,-0.009090400806685788,0.1904462816824535,0.036754882591069474,0.004849756383960372,-0.02879821659604016,-0.049876816348276606,0.009954574113847736,-0.034562669861432985,0.012720778243994065,0.10757826693480017,-0.02404072319506919,-0.04782461822237259,-0.045688569377124774,-0.051620638543009446,-0.0036986034814057824,0.054804964829945776,0.02281854949387686,-0.038055071483219176,-0.022007278860345446,0.20990390754348673,-0.05518508822712128,0.11860294776322802,0.02594442518841806,0.04129063285383323,-0.001536993113610628,0.045956015528996204,0.009327946682730587,0.012870465085924468,-0.15286821049379956,-0.004762198745500865,0.015137456807187415,-0.0807631852355866,0.1177287602407161,-0.008337665790650777,-0.011924781444346735,0.06543390218815055,0.07247431499014155,0.07398679081084956,-0.0005405251613314757,0.014754210347664548,-0.06236330182785822,-0.020847397768290338,0.062133632204321596,-0.04610936178242389,0.04909151778961801,0.012827126626805865,1.0246043223160937
0.01754113708093244,0.006566871857871762,0.0172301717345639,-0.06042636620956589,-0.029061946946694422,0.05779031021362492,0.038400424657962895,0.015324650182763466,0.02201681335544138,0.01625138269933174,0.007030714547262867,0.052413098620412046,-0.04098991543250588,0.03878007661143165,-0.02032848546582469,-0.0014381019869497552,0.022110527133077082,0.009730456765734377,0.03470912325880658,-0.010260514392961634,0.0475439706748175,-0.02128350635612808,-0.05687387130683007,-0.029603750267481882,-0.019420231787891026,-0.044494215939147555,0.026868068243653467,-0.05828489650325437,-0.01951342215298786,0.03985023511300777,0.017877576870162504,0.056609460680687215,0.039111265386649954,-0.016142341427077822,-0.04686077893852843,0.03936239039847583,0.006051239870295572,0.04961226108514623,0.018286335858068464,0.004669958439608213,0.058656163720705715,0.05878814130751003,-0.059267216197200864,0.006122922911014281,-0.01313410974733667,-0.05493283933394577,-0.05036380563923676,0.009074030843069389,0.052176398718549816,0.03449181588502194,-0.024162335586046316,0.004083128730050345,-0.01934182624723231,0.008511372182926524,0.015063101822894664,-0.05157340055361326,-0.017782534366887384,-0.05386080363518342,-0.049143255830789864,-0.006196223246489843,0.04170916181124534,-0.009528175660703644,0.0008991805994954111,0.026753642243527456,-0.5931257810719864
0.015967224116849102,0.04650851310589943,-0.0005765163830432181,0.017164083321942344,0.05854562252849827,-0.05740056970966598,-0.5048727013813523,0.055110582337719365,-0.16567192704486683,0.1941939747930561,-0.060400189997319595,-0.43048987218061147,0.5208113219553785,-0.10605641949785306,0.13488387143001423,0.029378101203698326,0.053818643285171414,0.20323658980286471,0.0015718214312710076,-0.4410001277340361,-0.0038121446413735965,-0.14942397581381422,-0.0524907893811439,0.05738129363660238,0.010457395996914403,0.17647388105930764,-0.42077855352599614,-0.25111372688233624,0.043612903086938486,0.054850397800348755,0.006595164876710058,-0.05977959375276269,0.12004058327672082,0.4913572454598625,-0.028886354074666436,0.17944906838786595,-0.04155278838617557,0.1307810313959662,-0.0492556873661886,-0.1777672934512078,0.040276604781549215,-0.12624648958057647,-0.11515339935336635,0.009222463431145888,-0.311937227759021,0.023283085995047456,0.11275676933653805,0.008743687767190853,-0.16127096391213885,-0.10512604071897894,0.007951808373701155,-0.016787602143323883,-0.056209574999475154,-0.24449499211963074,-0.1347027529885041,-0.018388476039578213,0.15733272894464337,0.5831813019633542,-0.0351713331902177,0.2817541291289175,-0.06060895133385433,-0.03341026328091235,-0.29908237338106886,0.04661337906416671,-0.1895218578049533
-0.041289071289817666,0.01573045888784433,-0.020788644897833122,0.0033666961128396566,0.033555036502187614,0.02590259563211518,-0.0354812381004193,0.005572458607929834,-0.045095091765196306,0.031521455086922646,-0.05100446351456765,-0.03368330361090387,0.05228673384932504,-0.0371131395715894,-0.052605102062184106,0.012859990963147286,-0.03446468036855659,-0.04957950429528556,-0.05997368484224065,-0.04060392231810612,0.01703024041549757,0.009674847280554937,-0.005611438928707316,-0.02926354539876906,0.056335908644019675,-0.059772103693368495,0.04010906044113148,-0.0012383681522577814,0.059151431260998186,0.03539768738353326,0.02495920990812439,-0.05846377499756475,0.03534790997587559,0.018177285933358846,-0.04494364658233699,0.0103810013047408,-0.027315756031004,-0.041296938674184935,0.04941387640228999,0.051269823493352615,0.021141410400017935,0.046993945693907344,-0.007825998080819681,0.011718985791097813,0.02943438202924363,0.029189239965854697,0.04422957952913234,0.012116570911923336,-0.02665124645357597,-0.03517830583543706,-0.04961916256595067,-0.0603207874679704,-0.052887149637194916,-0.0018457506926746253,0.003616159307901985,0.017948268027463188,-0.010498810144940588,-0.03461220085398126,0.03503669381787321,0.042827029855959875,-0.031176595663018808,-0.027310135445724446,-0.027216093376953188,0.022752588289937342,-0.14335661877842104
0.03236519127528528,0.05600653878593964,0.0212963033609446,0.010811370618419774,-0.14681784304057108,-0.010824268046431246,0.04913746713827033,-0.026421219937951993,-0.1593496033105414,-0.05460330022319932,-0.04004566407263932,0.16444026642365495,0.1801735457288289,-0.18027630585649868,-0.24350599142687449,0.0025475370730385916,-0.07206960124617531,0.06941309513180208,-0.029745948979381046,-0.004201797781449872,-0.021988058945888483,0.05505276783774054,0.00580151419978222,-0.008611959733620708,-0.014976628309152836,0.28803766220383237,-0.24312637459113232,0.08623445883913819,-0.008665064460081195,0.029807659750877402,0.041720280682025546,-0.02966668665174334,0.018022299844784463,-0.07222479099816358,-0.08681966906778692,0.1452535922102003,0.03648635389281685,-0.11278213411388732,0.05804574412675275,0.02744033957418298,-0.07412993978135078,-0.0968133668049809,-0.1032727436783079,0.04013734071977139,0.12451119468231966,0.027633387144440472,0.13700391877193707,-0.023764909540698667,0.030161048569743925,-0.0035673357687575984,0.008468984612757642,0.05206509542775053,-0.04494735093391214,0.2960384767983957,0.14849540160859165,0.07456850730870301,0.041531164307414874,0.12076157548786008,0.008748754582942261,-0.20309286423429876,-0.05581586426140335,-0.0514958057935997,-0.044838794285272064,0.0503859935367304,1.2073566377647884
-0.03086203803167796,0.00041521697174162764,-0.05394577347445635,-0.04857919398078181,0.05352157071922239,-0.01174591864372558,0.06352959696650243,0.002516135799799202,-0.14738730722703922,0.12850532456740202,0.0976343296402621,-0.0966717060430661,0.06476387849906064,0.005250032680006331,-0.006570041141401532,0.013795649957866862,0.212801947224107,-0.032583697582547776,0.03583430963984344,-0.16540264220305265,0.0006298074345266608,0.030914342768288753,-0.0484837000269778,-0.04712122037980898,-0.042159163792714074,0.10396728964620128,-0.11002157571408235,-0.0021212967455407987,0.023724211518604446,0.02115048134675268,0.05402732744974722,0.03457511429680018,-0.09365759751059309,0.12704663665615223,0.03523065970086794,0.09291416224786249,0.007858113744021624,-0.03926080725967498,0.01160986660207207,-0.21881418668696825,-0.041593322551291806,-0.12590683392728658,0.041245133841788705,0.11732545548543946,0.1417112705383733,-0.06425343160835711,0.342783986651429,-0.0617538059870823,-0.15927048023426432,-0.00851384403940092,0.007019188242595286,-0.006409973558126684,0.005864033575881389,0.004352415983669631,0.0010257263851174924,-0.05001806219523683,-0.004904033853244169,0.0765234005228238,-0.029723884163875045,0.12124505819367763,-0.04484695783668609,-0.049092418545099006,0.003362404694037326,-0.03889533243614321,-0.04934239612759758
-0.02929235734674058,0.046828260595869434,-0.018802640919079773,-0.016272363923416147,-0.032827643280702964,-0.04015214976421888,0.05115614252117052,-0.02541228298078829,0.05038933316195471,0.036775161609069434,0.037208620061755245,-0.06013587667447617,-0.027813295242529647,-0.03922502056694592,0.008603475057798265,-0.0560664621785663,0.02865689007806743,0.027833678439515543,-0.04931920598525898,0.009143580287347963,-0.012367011579302492,-0.05782050999084946,0.038939008104996085,0.04672852690931162,-0.04254756181092585,-0.0301805489782912,0.04906774979875762,0.004523987307112872,0.020640349703934937,0.0025192092933952887,-0.06161711558902544,-0.04002392029956856,0.026158646495211935,-0.04704944749137304,0.05944109395738229,0.05401498243325393,-0.03394918767977616,0.05791356999124969,-0.019574662945278834,0.04321251076412883,0.05295024138893166,0.02345848281900246,0.03463419317891915,-0.03810030203848375,-0.048783697018608706,-0.014712241104322132,-0.027645594719359158,0.019460483431083864,-0.023326543093759103,-0.043040874100541894,0.04900315230368144,-0.058675440604599956,0.026565974350238122,0.04428648811112655,-0.01570284731692478,-0.026576806954132965,-0.012399299342494298,-0.030832831922353345,0.03911261849523613,0.012791573850831692,-0.05078143841608003,0.03908316732970909,-0.009241071044497444,0.01890360695963969,-1.569204678858296
-0.019921954665889127,-0.017665901416338475,-0.029771298503108404,-0.04472830130948119,-0.28814772871407324,-0.04718840352121895,-0.09392756401449914,-0.008323956305543237,-0.22550396720684834,-0.1950503828924283,-0.09699043008219076,0.2701826855392943,0.33869284995436005,0.0671742535542779,-0.33258158709962987,0.04243874743739469,-0.07390735403818409,-0.0714817023924142,-0.04465264370821259,0.23665734069399097,0.05788956187392198,-0.00930661402406883,0.03881331651585856,-0.045955916864839574,0.04784155476549216,0.3615813332471819,-0.19800826631027024,0.012026016673981565,0.03235116137209596,0.04051230549930469,0.040108034847151225,-0.02915667162339564,0.0020286028623999796,-0.34413052964301555,0.022731774061531443,0.16896721036216972,-0.01729772635949883,-0.024219443716550253,-0.05923039310137488,-0.01659784591153935,0.06302017559539108,0.13590733002406286,0.025021818938827836,-0.022952060389736906,0.1566948941975319,0.04021877815141362,-0.020850936895512092,-0.034991140078192665,0.14241665705025283,-0.22045936181919715,-0.22263396720230494,-0.03584281603974324,0.009858037711846984,0.29090806080088616,0.17608634652078814,-0.0036569789713291716,0.05953274551328653,0.10776701680662368,0.05577604944363494,-0.11579805082276473,0.04007178530799989,0.019530277484372683,-0.10876207307172683,-0.060143978860829186,0.4148609772734818
-0.050814721138995295,0.012435670025718715,0.010990107786646719,-0.05698095583844866,0.03689644202303506,-0.05172339910457956,-0.0008873943630704206,-0.034076346050406534,0.04502437531261318,0.04556331431162493,-0.027240390018385324,0.02564684914221936,-0.026920872156910663,0.03702908823005413,0.031979948089040006,-0.03410449739972875,0.006278540522248188,0.02727354667851184,-0.04492637109974952,-0.06240502998110474,-0.03839651525357744,-0.0011767897096792296,0.03134141511559434,-0.02934004116670237,-0.027619413510972912,-0.013398774797941507,0.03096765074365107,0.015732225714376255,-0.04962859692199677,-0.04552961121814737,0.05943701694085633,0.03062705886827935,0.05470940916171539,-0.008005599987881723,-0.041074477053764685,-0.007301942263880437,0.04915861325803207,0.03547468850546483,0.034716986465124056,-0.04643417149760157,-0.06217223601147369,-0.005101649650423548,-0.013540047282589646,0.009525101391593377,0.05460256590179867,-0.022561204818666428,-0.02741085345846596,-0.04216791396280155,-0.04239785840407395,0.00760276346689244,-0.0053470390725730566,-0.01552209235378997,0.026315173986744447,0.05278516086746625,-0.011327778479844536,-0.048304654040307385,-0.007686418461321315,0.04717007570577621,0.036125403964302194,-0.019617021919199493,0.049797308303199464,0.029457766960910736,-0.013237464391494022,-0.015278077384327543,1.8974647334436947
-0.0314521091715988,-0.04583417593660297,-0.028424434861070838,0.0026714124130594874,-0.11215115447883081,0.009597944778300935,-0.04219255342890644,0.01754662756821893,0.15498031135801893,0.03107518943136686,0.01811779433914164,0.14364814510876428,-0.08111682381869856,-0.06504312828661175,0.14474096426066252,-0.0356464498778717,0.05417303362099512,-0.0377042994819693,0.04867812116835381,0.13516663312153587,0.053492215971863585,-0.11901132319852833,-2.5285849875110373e-05,-0.057057083015528476,-0.10611208665099367,0.07362590163580722,0.06858971927190817,-0.04751124335782383,-0.014779291970359468,0.04353674182964165,-0.04444991173398523,0.040562913554741176,-0.11515695713751702,0.11128696770801652,-0.028755316905281936,0.1891412587076359,0.05689688147072072,-0.020595729789491236,-0.004726591706622755,-0.01840898017711404,0.07528577442516095,0.011931109371666483,0.0335115301207457,0.04040283662005576,-0.11188190310541399,0.052363766150078934,-0.0793932192297567,-0.01048862723590499,0.07861129428915394,-0.09986158533585873,-0.08684131606514003,0.046867442905728036,-0.02900779788557155,0.16739112785505866,-0.0036702005664577945,-0.04353893047794198,-0.00016528746147703182,-0.17677113311154005,0.054063112863565924,0.06380979125348707,0.060063009216272875,0.04531194961218279,0.018583950270910844,0.01357819621772463,-0.00604924032587069
-0.042042371470353876,0.020040287267349327,0.0375746782984775,0.03735839953079177,0.08911920397136622,0.008572296687595904,-0.2298377462347769,-0.04003073890313859,-0.037370260092019277,0.0756213666164916,-0.16151227708690125,-0.22747741253991063,0.2571242099040843,0.02257678650843405,-0.0063401155605996035,-0.041652535393910964,0.04976639791869143,0.07521676535842195,0.03670887068040334,-0.174396545019044,0.0247107989155865,-0.005844008165819349,0.00021555365948772672,0.06057468062100993,0.02160330176874217,0.17026898791891062,-0.09541275338947991,-0.15214377204278196,0.05192660196809723,0.03724921550112706,0.055347369750494126,-0.011348972575046995,0.06663281765242231,0.11815893660129904,0.023769457427858142,0.043572429001726184,0.04744794872626037,-0.056434507438559316,-0.0032282934473335553,-0.03765893687812599,0.10807266371254015,0.09622454981820923,-0.050926244746478694,-0.0024991065603095935,-0.02245330856848369,0.05018543667057904,-0.12929129970220019,-0.05017149662691553,0.11890020684518768,0.018732557453651637,0.020286369486116822,-0.026229294787851288,-0.012622266294975856,-0.10378415070192529,0.022324004038852315,0.0022122114031398105,0.0332753217149354,0.20984847147638055,0.0139806008610317,0.18569402575450303,-0.03738552067430116,0.01429632847721325,-0.014883204975662236,0.05974065258750036,0.8168287758405586
0.05112560717395506,0.054731408622952823,0.02613926118597306,-0.014155462011653505,0.10230906884289137,0.010440787048514505,-0.5527644648861728,0.011853296058471666,-0.2768712441573374,0.0922247428816655,-0.2560840151495389,-0.43953425810825997,0.32444549616885243,0.3592232950126135,0.09765974875594806,0.027247374799095114,0.25724468166719194,0.003141109492561935,0.036471587161371416,-0.27206243268694025,0.059009447541672005,-0.14580225508723502,-0.037334135078154064,-0.023057529247511935,0.11301380890297404,0.47723912570776383,-0.3228630385996715,-0.3956153925815026,-0.03222063518102815,0.015344624693818601,-0.02682728763395853,0.02676682619940952,0.028191802913227187,-0.11745914804479402,-0.047050644354545666,0.06556033865079276,-0.0011786755481311357,-0.1191859227238757,-0.03127604165867572,-0.0775241115791379,0.1367916879157502,0.21441271716369747,-0.0009814827173069806,-0.243459158842751,0.46329936979474867,0.03037781367243168,0.14584065915228936,-0.03614464169388454,0.03274602133912379,-0.0795930522734962,-0.41136898738706557,-0.0013382179853869858,0.047579867739221376,-0.06982593225644702,-0.3100859273128574,-0.015443506312956884,-0.020217538579657007,0.14749571796077693,0.044556932246139325,0.31563009592776636,-0.01893460162722066,0.001762534737032369,-0.002546734690039712,0.057491903969725644,1.2701347079392233
0.01090916066026931,0.004982969659175607,0.009894850196067393,0.002172378564880298,-0.20071805628616496,-0.045349312299604996,-0.05908321470590495,0.01209303396379741,0.059173371593003246,0.03331890644950405,0.017946928295612674,0.0837240356688977,-0.03748442051291266,-0.10084358858506604,0.2322002034368228,0.01738105112135778,-0.09268514643022306,0.10832346544638878,-0.036391104634592004,0.1097921767614335,0.02223161797073815,-0.04704403158387542,0.021619556034471757,0.03641032508573665,-0.02761403599040755,0.06487131466339935,-0.07209656342052091,0.06302019523203506,-0.04601324650498579,0.02930640166594052,-0.05582029932996549,0.02716101486004753,0.18794223084617573,0.11866839229495878,-0.00422161555464799,0.06828601489721858,-0.029062387589350286,0.016437232153218673,-0.03622127132745691,0.13105505392035738,0.12883105438315517,-0.11945472946113042,0.03317045717310321,-0.03322741076244324,0.057652161381196165,-0.04392740222935888,-0.03198971634736369,-0.02304245592424166,0.0791634665378027,-0.05853016878279977,-0.062456322311820266,0.05278838196630686,0.023963595272834037,0.017183087746053614,-0.13941832652093183,0.00647351439303237,-0.014240273780302293,-0.13144794300236493,-0.058379041221619604,-0.10584327874335113,0.035749776196344826,-0.05712325319560796,0.10169963910437443,0.020581377407118642,-0.20203078140655892
0.0024080285137210947,-0.062276774434902274,0.0023821139871310843,0.03984601237622183,0.020779664560251078,-0.007882600416621338,0.05151031922006279,0.011439898831529058,0.11730391790767833,-0.010213184209429203,-0.026658291201327514,0.08376354601330817,0.010894805369936577,-0.051886600753178774,0.06339779084024266,0.015808060084110315,0.04834287183987532,-0.03506489479822476,-0.0429262927342366,-0.010631408473110684,0.02121261883837812,-0.022178132498156238,-0.037568351624522205,0.03606284314369909,0.03168269493500233,0.05232666687025198,-0.0164355323181624,-0.08026219452243648,0.0572900610575009,-0.0422562111528421,0.021621718786368857,0.016844329119449258,-0.04044283602545039,0.02146105384358548,-0.009518684430037143,0.0246666214488006,-0.038063726796389336,-0.06248758541205554,-0.03739447500863157,-0.07209988469536889,-0.03430685503876295,0.006079049762283733,-0.003645951716865363,-0.04607945046369598,-0.002782518269158819,0.012103509177173767,0.04393480225709249,0.0027888195264593463,0.10259830100829126,-0.014234436142292512,-0.014617182507233081,-0.05979885035130507,-0.0337494054301815,0.047475365631215204,0.020191015464234637,0.05418118291442225,-0.003799006781649182,-0.08689836562610963,0.048334756656868094,-0.08713616996899258,0.04361095550370843,-0.0017170698038360853,0.034861030693115885,-0.019094395120636654,0.2525135481858455
-0.0418781301325223,0.006676131424005763,0.013858067353264697,0.06197548335496704,0.00906752029916045,0.011540076262595525,-0.01001463729356763,0.02722690829375296,0.042807870419205266,-0.013224321795719392,-0.003564828149263999,-0.05478385175824932,-0.03384779329792366,0.056826871030034046,0.0497911581794837,0.04332402374163237,0.029532546155620967,0.018217058751547204,0.039313010703231135,0.054997233991429334,-0.02689649067338644,-0.03184362183727071,-0.02634884489409503,-0.045454208885734565,-0.016445121321274413,0.06011895282301274,-0.007085252077006401,0.06215464809366656,0.010738750884805734,-0.030769643811543804,0.060275215699731224,0.01529702657921002,-0.0449106721216338,0.05766154597713243,0.06185007014874129,0.05291078056192272,0.016204020922016407,-0.04151980425327018,0.04893605016385047,0.05551660436501007,0.031721808008315484,0.005902829730380936,-0.022605677932309734,-0.022854553880380067,0.011279545007060061,-0.021857193110849896,0.006744201792065058,0.03631966903531343,0.011327091791006817,0.03543002012376189,-0.03770667379784967,-0.03528537980435788,-0.0042662498221528455,0.0408762869536716,-0.009003431166170688,0.05904036052439516,-0.0092491389487601,0.036154594320846015,-0.020777893024688715,-0.03738731671476723,0.051255971827700475,0.031385333591604656,0.05284463513184187,0.0033210659786758745,-0.7334103609638489
-0.03328795060380279,-0.04740545383160692,0.0553280258744538,0.042384018376030924,-0.02999028838829969,-0.0012642987164221131,-0.47248862859007346,0.044693014894366744,0.008642482677727692,-0.2589185294684204,-0.058992694516492576,0.027602993455199,0.05094903087215455,0.3063213662840038,0.14921579933591214,0.05478816701259977,0.2676298895097506,-0.0011725699820589544,-0.05805640523654433,0.06033470269612789,-0.04100008240666843,-0.08181599640652858,0.04826871514103567,-0.056551794529003094,0.017073551850214395,0.32526744650004263,-0.13644942655171105,-0.2538141366635415,-0.04090323252993594,-0.015474756909951981,-0.04296102204122808,-0.022245603862148494,-0.12810772692214867,-0.06181071499756754,0.03699504633089185,0.28386718243865317,0.025274350181796273,0.18937827831161927,0.05008093880801212,-0.22291356904708923,-0.009964700092407994,0.3702121961540293,0.03155125845467345,-0.0515724016894076,0.034879061980084926,-0.016311991697241977,-0.21258301093954615,0.029811832278613504,0.24912533869486428,-0.3363810813861553,-0.38996183016584707,0.060337121569798,0.012782981588553108,0.014693425961474094,-0.05084725644724518,0.047797894170748666,0.10590988038711532,-0.006012866717824675,-0.05726628651419534,0.2218398748054857,0.015066603921557897,0.05497558430781454,0.01748187602837295,0.018677505607769013,-0.48489138826332806
-0.012014172606370098,0.006794004321664215,0.03349707624529931,-0.021624154768807413,0.05296884740726885,-0.0118134384201595,-0.28564487304645947,-0.0023870212390586696,-0.22272032630672042,0.2856575028338167,-0.021124694162519424,0.16399027559341786,0.37460045939033954,0.30675897931126234,-0.07528992302620212,0.02757818887769302,0.1753449737029784,0.07024626278256942,0.05230539301258054,-0.003641679627402679,-0.05769037811664436,-0.17035091464079138,0.018579378191494113,-0.04858797511029769,0.08306045168237142,0.14892900574533532,-0.16820893284155647,-0.04484455417499792,-0.03644900639551504,0.03802435201150205,-0.0247587357403936,-0.037358632474943455,-0.10838757333413986,-0.05645190100389823,-0.01918839639147461,0.14421063457872255,0.05588346867623402,0.1531219225297006,-0.034030496136438784,-0.2466642029079832,-0.0019916134493007235,0.0698973766369249,-0.015558028356125268,0.07039738717121524,-0.05091461309100762,-0.008904126552985241,-0.03065164453107624,-0.009187021508591756,-0.18934572152017126,-0.08319510456885362,0.03236341429177837,-0.03400487594390642,0.023565520663959366,-0.09158411026637088,0.09753056972077229,0.0027750671381683526,0.23841366391685456,0.24641757389454266,0.05555481634797382,0.349399972391949,-0.021025482720066088,-0.04742223497016329,-0.2785975073760714,-0.03945278243933814,2.0037498783812904
-0.039950663512789635,-0.02545630035230617,-0.014501247834672186,-0.029948786185182402,-0.05168862026863691,0.06185659331065947,0.15568518803420195,-0.028344413804629986,-0.15118072270632113,0.14569333172377152,0.15507496614724275,0.030164791953035907,-0.10605757180674351,-0.11751606775683414,0.09833145144752979,-0.010218655827916437,0.1824554511772243,0.05429583876335499,-0.014978248008577649,-0.032808152941646594,-0.012642373801758797,0.03594901363825431,-0.0029147245236359224,-0.018312527944326584,-0.05356566517982967,-0.004928661342432859,0.09243640307670321,0.11460958742404496,0.049459080220163744,0.042716928481635566,-0.05761498181834433,0.04410021133507289,0.039797342163101046,0.09530488191243267,-0.017637772288838314,0.0015350532271279763,0.03375966382904495,0.06790953176252296,0.060476801533704466,-0.00943775777439155,0.005756252394188508,-0.10592507003081181,-0.0028843049116375795,0.11490898441177463,-0.03167114936005837,-0.01659568206808081,0.1362177518894808,0.04505124491430172,-0.14864992126088455,0.041366775366707215,0.08944519093942453,-0.05289847330479321,-0.02681628695000457,-0.10590293051947502,-0.02208475971891961,-0.006733967793937385,0.06243802156263979,-0.07140230746864688,0.03725687852590934,-0.04621260163760016,-0.007969505238513142,0.002691723560470893,-0.0567211026837822,-0.027653331605062795,-1.520404163630522
0.008299912399160125,-0.027482964886693634,0.0007950474819878047,-0.03616207333579105,0.10037811123425351,0.058777618242285806,0.17330295970593806,0.054652917479177325,-0.06731948236096778,0.10510638993669356,0.01618447628603634,0.08733792591810352,-0.014702390127447052,0.0221307367298212,-0.08816067640572466,-0.03307277109336276,0.03096012036537194,-0.03345709159790056,-0.0219330106401041,0.01892544197024538,0.03414771806091638,0.037788191168984644,0.020646984899320344,0.010074822721801269,-0.03713919322948068,0.12615472421467513,0.153097961846506,-0.03676675833570543,0.029154015017253794,0.023072568747873,-0.04353660238564556,0.0148507699865075,-0.2280021940757424,-0.028528246855871343,-0.029110348371117745,-0.035647182508203305,0.0007306602080536656,0.13105076832684018,0.010350763581590807,-0.1917396591951153,-0.15077871114953623,0.058070420801084044,0.11106405771924938,0.16714945159012803,0.0933243603339036,-0.024956360063242606,0.16630249268504085,-0.007356133779465049,-0.08082873406428985,0.04276146558315089,0.00036802070049416456,-0.014046715197271912,0.04131355211668007,-0.16958613422391983,0.15419166786627048,0.025684032469830826,-0.06837222067429999,0.09222954646746982,-0.057789790388698595,0.25117539090160074,0.03401274569489231,0.004525112006135807,0.08145833489027397,-0.045794579439365365,
-0.03875620189354731,0.046864247937280695,0.05976268234756206,-0.058190391487881896,0.009888334625863193,-0.04659832391807582,0.0023521248427163105,-0.012554003811035358,-0.037014570746249656,-0.04347444149657774,-0.013630642808160134,-0.06106649507188372,0.0077661174234191915,0.06076700442887141,0.0023605394684673014,-0.03813268585019025,0.023750774095015595,0.014816510965694876,0.03708148892940895,-0.013454083340089476,-0.005220743962100857,-0.05429381724882548,0.04282805928940493,-0.02168142438551658,0.020984176091857765,-0.0542366649819184,0.04889428225024202,-0.049416160091040315,0.016922332612312976,0.015598604361910934,0.04844442214254352,-0.031015531002139232,0.00707628943430319,0.021332775606342683,0.0351301255510664,0.0498751917733591,0.038395623167040774,-0.016247643134825185,-0.03508359799193739,0.049177212515096186,-0.00851422832841399,-0.05447100804294416,0.016436004850653455,-0.028474970707234662,-0.0347719949921194,-0.049295557007852,-0.05922893243399854,-0.05162857583637742,0.015447202834059814,0.009337110784653851,0.01942920720605315,-0.012510543500943536,0.05711602101380904,-0.005962094791572808,0.013595398632147093,-0.025300289431322162,-0.029539886364684936,-0.012151632039150706,0.012686651896395049,-0.03124100014522728,0.05907890738781947,-0.029167371345747706,-0.0076094293368977745,-0.0004205133724997645,
-0.03749372671167734,-0.011924444407934276,-0.04842059045261276,0.04698609278228541,-0.08607884608762362,-0.0312180906462933,-0.0656232499527471,-0.051303673660507775,-0.057694190495332594,-0.06863912523482003,0.11728041766512157,-0.06726240478691428,-0.008246500586079007,-0.3330432659356615,-0.012512610757802488,0.05942329407984716,-0.07946308527462882,0.05726657650032975,0.001369510437978932,-0.021618845421944106,0.0030522244972804313,-0.08786307415176813,0.02707201382453059,-0.03862032841989442,0.014929175778152106,0.04666323042037669,-0.06336249953519663,0.12598225847622724,0.008904634792670209,-0.052610021695144324,-0.01862775939320315,-0.023428926857556112,0.04055816616815996,0.23934244447579572,0.02345944214411049,0.10207000819589111,0.03532406263795503,0.1134017929919739,-0.01144408588917309,0.09536237127282497,-0.15855102379742908,-0.1325582017442766,-0.016271910697314117,0.17491786163319886,-0.2695968833911556,-0.031456985901229945,0.1681471190345693,0.027527972393547706,0.040538634354950615,-0.10450240839676764,-0.04758887740873974,0.0451665909010432,0.03259053642897672,0.06050293948898215,-0.08654371617823417,-0.00818170580721069,-0.17807520421838416,0.14807692892595883,0.014232438070097955,0.0034039484749120797,-0.03598992750932935,-0.031450156369933494,0.13455644437674938,0.03898961870589272,
0.021690515696575235,-0.0488980773583315,-0.04214677886091111,0.03197102073959221,0.23545239264303958,-0.027361935286467673,0.08396836354655564,-0.042963048842909454,0.007194037462648179,0.23804526131726844,0.13517721787546055,-0.25845526765820254,-0.045229179899745245,-0.03670600650290586,-0.030482056250223138,0.020908325074054532,-0.025084982642766682,0.11225758637099476,-0.05173502045432936,-0.1593411546508193,-0.03251549041782839,-0.04827767555519941,-0.0010312320375287498,0.0480315940846425,-0.005503729749681434,-0.3317266393109957,0.1908877124217919,0.07377946675252249,0.035166815886648134,-0.03155003765491178,-0.025053370787843334,0.038655738258302236,-0.11575597020783404,0.07116002845604802,-0.010941753144767438,-0.28923956205252704,-0.04353997647441509,0.08823026813194611,-0.051706646700244774,0.028881468435500032,-0.041336382781651665,-0.04514165959513671,0.06748364809304172,0.14856459831443097,-0.12458581884210666,-0.033983799822973976,0.06941090781456741,0.041437397258792086,-0.27242284182468435,0.17284154076126262,0.28614666270743,0.03256533274804653,-0.057252498502821034,-0.247507659418416,-0.019082368276486718,-0.04134150403001166,-0.14477655133021555,0.1760469017174946,0.03876435325198431,-0.06886535753887006,0.017051481324489207,0.040121183044260704,-0.10408814391850618,-0.027594303607398715,
0.04316165851616183,-0.008740130053189632,-0.06110901158229936,0.03215988571052425,-0.003436561034533866,0.049651654969207815,-0.049028405852972516,-0.05690653804852647,0.1270227748765912,0.211342530473119,-0.01920943733434918,-0.05869488617309421,0.09370379075044087,-0.15753186551902978,0.1397194242752466,-0.05898104218664817,0.047147451053668805,0.11607524466437594,-0.04095308525228277,-0.014856552370907156,0.0008679608150778118,0.03426360246912769,-0.02390800319319195,0.05787668796265262,-0.027913677796217857,-0.06015280203366483,-0.056065065829247356,0.09182997445234584,0.02319591288882553,-0.03729207368474442,-0.053089342364397454,0.04756442949797445,0.09333539051162024,0.13243486345041774,0.060232239780280056,-0.019770983591731357,-0.009570078073218366,-0.033937878786263476,-0.0066897519553182575,0.03758947276645773,0.0951366041653643,-0.17442600763427557,-0.021648622669292905,-0.044014680555845315,-0.09869275389479334,0.013354786185198416,-0.0294459411347977,-0.03009967488977988,0.03909179540359732,0.023940322244169632,0.08031788216424364,0.017534063009410444,-0.0041195365812120854,0.06786765571063881,-0.05460144939476088,-0.01383114301493556,0.1346839392292491,0.016522650629586997,0.043207799015558726,-0.05885542669027132,-0.05435803132031332,-0.006096594853454009,-0.05600708009037155,-0.040604230243182604,
-0.06244916163120486,-0.01825467120564679,0.06431993082857534,-0.008769449679509864,-0.029146621067523908,-0.046800850180172104,0.122477483495026,-0.03417718471120369,0.20077389791499445,0.0629916470127379,-0.06460803101970011,-0.1093555638483574,-0.055420457971747765,-0.1344592566949292,0.08088093930787166,0.0414955663335535,-0.05191925818130327,-0.03027566191183809,-0.0047676962324463635,-0.026990838700019646,0.03936785622427792,0.09176568241590043,-0.020470201566147928,-0.0038473940899380332,0.04781340446071621,-0.04475060489122052,0.03229001912798733,-0.04510682309857147,0.010880021998039786,0.04045043747205403,0.020077718993839894,-0.01594643028894673,0.14539561779270213,0.17488001064426958,0.04171117347819875,-0.051645268239020097,0.016484057828193597,-0.06349247744443426,0.03888804427330538,0.06995711044505686,0.023486146517375135,-0.047876914260976296,-0.05983980581116874,0.0023747376264125148,-0.02929516977199252,-0.014323388705279778,0.010672578060597305,-0.018332662577126416,0.08061210708712716,0.05088852084760215,0.014744668042246079,-0.012924631102912303,-0.02990153315548648,-0.04138202109976617,0.03702332996554216,0.03772352889222819,-0.1617110555107584,0.08486997628056561,0.013648469379181127,0.08237792019935976,-0.0029781806284401996,-0.03882505427369194,0.12263853628361882,0.0030729282990262508,
0.0138212911223152,0.02111281611822187,0.05406583376441848,-0.04795543694157607,0.2147562560106235,-0.020603507756103104,-0.4234717048690738,0.026945135464517666,0.17911234869641857,-0.13121464807600575,-0.09062132907272806,-0.08857443303518087,0.3668522984402184,0.28960046394884303,-0.06421678704342353,0.010103842561368565,-0.022326818304285494,0.038284138475267564,-0.037981414837681,-0.11216582271565118,0.038083425813512095,-0.19674277520595101,-0.03129724274394018,0.05360501744258081,-0.05030873099036724,-0.08764608076309159,0.10296495345997553,-0.3204836232856805,0.027178012760084264,0.037598014625966375,-0.05896046776429423,0.023298066948780526,-0.2174254321703928,-0.1026502313599141,0.03956915637257117,-0.11041463676981472,0.007697277848517141,0.029432533281841287,0.02056541264300445,-0.2435477928746055,-0.016710306489674986,0.2973810843136706,-0.06338072321295933,0.07836448194022716,-0.06574367949958501,-0.0005398264309061642,-0.16560989317340338,-0.0379490732220369,-0.06495453108828553,0.055195272717409156,0.177223745528899,-0.0247763500301772,-0.0394722655485306,-0.3180655292883458,0.08239902286023398,0.0729108128347482,-0.049811275414327054,0.28768777603147283,-0.04877062596661355,-0.1248059990953514,-0.055475830911404025,0.05212684165977863,-0.2687067622763868,0.0005643171964603566,
0.024430200694985565,-0.007108906288191746,-0.05620635604212804,-0.04472277099524652,-0.04178558454468578,-0.051584199902633215,0.39790489759994485,0.015319134922148002,0.008642440551096456,-0.16584414703014658,0.008202626425686917,0.5788774449752195,-0.030540822989184258,0.11900174237770693,-0.341179405809927,0.02784504902338268,-0.050122706464848975,-0.04945264216922951,0.03143966507233219,0.16884937099807484,-0.015534673200030658,0.14662159137874162,-0.009467185134180591,0.03841361358611371,-0.0606195337793423,-0.007545565382178506,0.13725660730733913,0.14704742152770248,-0.04326358504308808,0.009757742311497383,0.05061547110257496,0.029196544950675158,-0.10859795370302232,-0.39547338727134324,-0.015748842396519868,0.052490787761961026,-0.040527774810679734,-0.09719474444708462,-0.01039542830307707,-0.16723449231825827,0.0876340088656763,-0.01019306311601163,-0.07251729471736637,-0.03988918331237402,0.06793725559237404,-0.06813479272955289,-0.31473667934043786,-0.034568600897960336,0.013270904504688427,0.06327825992179356,0.4883648070142623,0.023534422235896166,-0.012460678749635773,0.17095286656751402,0.48931352824866675,0.06899378180250931,0.254784144994604,-0.0850930782506455,0.004489025647570727,-0.14386461345441895,-0.04512751137057046,0.018193665815761716,-0.22741636775000465,-0.023812041682346796,
0.033498978040575667,0.04558285442660187,0.001143107991637998,0.04554756792588062,0.06382117716653515,0.053601014764533134,0.1827209854154572,-0.006974817081786465,0.19465853260695862,0.16959895507639228,0.05078477654154892,-0.02637001684991387,-0.019643262300098427,0.02044529837065397,0.07337066859254303,-0.02505108459700435,-0.012610430995612213,0.05725003879638837,-0.06417567225954096,-0.03463997032363178,-0.043236229273928006,0.11420464339073508,-0.058116727607506975,-0.013676587670503837,0.010164449094888972,0.0425989979436221,0.08190443535307801,0.07942069400936906,-0.04024624729135611,0.019671083414067578,-0.018156131296059953,0.02563246324649078,0.025482454106447387,0.16169489581619648,0.06985427324085375,0.10492646753503349,-0.06339938335150284,-0.019587609194679962,0.04261907875203792,0.06502340810111965,0.09507199216908077,-0.06590613145043195,0.02738788264427049,-0.06284154383902485,-0.0629323578958679,0.05981372245892582,0.1355576234801083,-0.02075086028884701,0.07764563363084274,0.1251096709246554,0.10947306815197394,-0.003508099681715985,0.005211497195455259,-0.018679247924848024,0.02908181603909434,0.037088087295523375,0.007780909532384512,0.055785602777068156,-0.05785619054053791,0.1664689516131591,-0.04235450860158606,0.06071169055428301,0.03777351964424804,0.05148419048769019,
